-6.516711413860321045e-02 -6.844814866781234741e-02 5.824175849556922913e-02 3.336346894502639771e-02 6.919243931770324707e-02 -3.078700229525566101e-02 3.867081180214881897e-02 6.694908440113067627e-02 1.801468431949615479e-02 -4.911328479647636414e-02 -4.653272777795791626e-02 5.654597654938697815e-02 -4.302883520722389221e-02 4.625376313924789429e-03 5.970660597085952759e-03 4.649108648300170898e-02 4.308709129691123962e-02 -6.720279902219772339e-02 -6.775724142789840698e-02 7.057493180036544800e-02 -2.897681668400764465e-02 -6.197716668248176575e-02 -4.801057279109954834e-02 -3.583427518606185913e-03 5.134425591677427292e-03 3.502087667584419250e-02 1.515287905931472778e-02 1.157805323600769043e-02 -6.943435966968536377e-02 -6.400347501039505005e-02 5.800478160381317139e-02 -4.252943769097328186e-02 -2.704696170985698700e-02 -4.825494810938835144e-02 1.556446426548063755e-03 -9.647533297538757324e-04 -7.237803220050409436e-05 2.429432980716228485e-02 -1.048913039267063141e-02 1.060393825173377991e-02 -5.686594918370246887e-02 2.058041840791702271e-02 1.289311796426773071e-02 1.852573826909065247e-02 -1.951766200363636017e-02 -1.245818845927715302e-02 5.458115041255950928e-02 -5.778812989592552185e-02 2.293230220675468445e-02 6.628020852804183960e-02 1.259638927876949310e-02 -6.133678555488586426e-02 -5.339763313531875610e-02 4.608004912734031677e-02 5.117556080222129822e-02 -5.151821672916412354e-02 -5.284691229462623596e-02 1.538162399083375931e-02 -4.598565772175788879e-02 -3.115781396627426147e-02 -3.328945487737655640e-02 -1.128324214369058609e-02 4.912951495498418808e-03 4.487101733684539795e-02 -2.760514989495277405e-02 3.472534567117691040e-02 9.240619838237762451e-03 2.942409738898277283e-02 7.015546411275863647e-02 -2.668965049088001251e-02 2.788164839148521423e-02 6.339167803525924683e-02 -2.764230780303478241e-02 -4.774291440844535828e-02 2.957545686513185501e-03 1.628341898322105408e-02 -3.456713259220123291e-02 -7.070104777812957764e-02 9.409946389496326447e-03 -6.647765636444091797e-02 1.700673252344131470e-02 -2.542615309357643127e-02 1.380977802909910679e-03 -6.802757829427719116e-02 -2.192356251180171967e-02 -1.657110825181007385e-02 1.657155714929103851e-02 1.412790548056364059e-02 -1.765070669353008270e-02 4.903580248355865479e-02 6.106651574373245239e-02 3.383160568773746490e-03 -5.054072663187980652e-02 -2.719520404934883118e-02 -2.355620823800563812e-02 -4.618627578020095825e-02 4.257585853338241577e-02 -3.020267561078071594e-02 -2.068773470818996429e-02 2.402682974934577942e-02 4.210992157459259033e-02 6.256806850433349609e-02 -4.862527921795845032e-02 -5.122907459735870361e-02 4.408286884427070618e-02 -7.280125282704830170e-03 3.449072316288948059e-02 2.405501529574394226e-02 -5.982955917716026306e-02 -1.127001643180847168e-02 -1.814038306474685669e-02 -2.972883731126785278e-02 3.357522189617156982e-02 6.023721769452095032e-02 -3.091545775532722473e-02 -3.305621445178985596e-02 -3.232042538002133369e-03 -6.527061760425567627e-02 -4.481596127152442932e-02 3.535285219550132751e-02 4.014689475297927856e-02 4.204896837472915649e-02 2.205955982208251953e-02 -6.726092100143432617e-02 -1.027828361839056015e-02 -8.165913634002208710e-03 6.286298483610153198e-02 -4.441635683178901672e-02 -6.069442629814147949e-02 3.395137563347816467e-02 3.461035713553428650e-02 7.046438753604888916e-03 -2.638573572039604187e-02 4.128330945968627930e-02 -4.227164015173912048e-02 9.462707675993442535e-03 -2.302105724811553955e-02 -5.138871818780899048e-02 -1.478345785290002823e-02 -2.302117832005023956e-02 -3.418968245387077332e-02 -3.459594910964369774e-03 -4.115143045783042908e-02 -2.532848622649908066e-03 -5.007135123014450073e-02 5.266621708869934082e-02 1.764331199228763580e-02 -5.456890165805816650e-02 -5.029933154582977295e-02 -6.106140837073326111e-02 6.469617038965225220e-02 1.495651900768280029e-02 2.995576523244380951e-02 -6.009682267904281616e-02 -5.842225998640060425e-02 -5.511825904250144958e-02 -6.714176386594772339e-02 1.983625814318656921e-02 -4.788074642419815063e-02 -2.165915444493293762e-02 2.295146323740482330e-02 -1.212794426828622818e-02 -1.445605605840682983e-02 4.340056329965591431e-02 4.974314942955970764e-02 -3.429246693849563599e-02 -3.071490675210952759e-02 -4.281048849225044250e-02 -2.236684039235115051e-02 -3.443481773138046265e-02 -1.418437063694000244e-02 -1.764859305694699287e-03 2.367810532450675964e-02 -2.981016784906387329e-02 -1.957316882908344269e-02 -3.476410172879695892e-03 -2.019762061536312103e-02 4.689930379390716553e-02 6.267241388559341431e-02 -6.230580806732177734e-02 -5.320090055465698242e-02 1.260723359882831573e-02 -4.527328535914421082e-02 2.218791283667087555e-02 -1.681032776832580566e-02 -6.337027996778488159e-03 4.737281426787376404e-02 3.806847333908081055e-02 -6.946071982383728027e-02 6.709402054548263550e-02 1.418042369186878204e-02 1.184397470206022263e-02 -1.205093227326869965e-02 -4.725733015220612288e-04 6.655988842248916626e-02 -4.657785594463348389e-02 6.992540147621184587e-05 3.097971901297569275e-02 2.203248441219329834e-02 6.943833082914352417e-02
-6.970696151256561279e-02 6.900584325194358826e-03 4.807947576045989990e-02 1.921508833765983582e-02 -1.829123683273792267e-02 3.523008897900581360e-02 3.178324922919273376e-02 -3.205683082342147827e-02 6.318871676921844482e-02 -5.309527367353439331e-02 -5.091162864118814468e-03 4.774961248040199280e-02 4.373000562191009521e-02 4.876501485705375671e-02 -3.879560530185699463e-02 5.109021067619323730e-02 -3.341832756996154785e-02 4.763548448681831360e-02 -6.396835297346115112e-02 4.948667809367179871e-02 -4.599648714065551758e-02 1.694971323013305664e-02 -4.691655188798904419e-02 -5.130782350897789001e-02 7.578711025416851044e-03 -6.493536382913589478e-02 1.077059656381607056e-02 2.277362532913684845e-02 -3.952062129974365234e-02 4.173142462968826294e-02 -2.830494195222854614e-02 -1.039848383516073227e-02 3.437966480851173401e-02 -6.275063753128051758e-02 -1.837952807545661926e-02 5.245315283536911011e-02 5.034675076603889465e-02 -6.941551715135574341e-02 5.869177356362342834e-02 -1.221888512372970581e-02 5.275017395615577698e-02 3.329858928918838501e-02 -3.583912178874015808e-02 -6.119842175394296646e-03 4.643713682889938354e-02 -5.812352057546377182e-03 8.106987923383712769e-03 4.130589216947555542e-02 -2.005080692470073700e-03 3.319875895977020264e-02 2.104589017108082771e-03 3.780965879559516907e-02 -2.251262031495571136e-02 1.203146181069314480e-03 -4.106998071074485779e-02 -4.209164902567863464e-02 -6.929273158311843872e-02 -6.304894387722015381e-02 2.857240475714206696e-02 4.693613946437835693e-02 -1.955155469477176666e-02 -5.257262662053108215e-02 -1.419065799564123154e-02 -4.571427032351493835e-02 -3.882998600602149963e-02 -3.954057395458221436e-02 3.408218547701835632e-02 -8.540332317352294922e-03 -2.936738543212413788e-02 -1.849223673343658447e-02 5.845604091882705688e-02 -1.770042348653078079e-03 2.172379521653056145e-03 -5.235099699348211288e-03 3.084780648350715637e-03 -3.928509727120399475e-02 5.989758670330047607e-02 -3.119469061493873596e-02 6.643962580710649490e-03 7.879244163632392883e-03 -3.840726241469383240e-02 3.206100314855575562e-02 3.443187847733497620e-02 -2.757816202938556671e-02 -6.573941558599472046e-02 -4.612480103969573975e-02 -2.300238236784934998e-02 5.444925278425216675e-02 2.045205608010292053e-02 4.772429913282394409e-02 6.702266633510589600e-02 3.145924536511301994e-03 -5.402229353785514832e-02 -1.912241801619529724e-02 -2.564241550862789154e-02 6.883682799525558949e-04 5.724357813596725464e-02 2.539636194705963135e-02 -3.687183931469917297e-02 -4.629140719771385193e-02 -4.835712537169456482e-02 6.044822558760643005e-02 -4.916639253497123718e-02 -4.719402641057968140e-02 -2.137648686766624451e-02 -6.691044569015502930e-02 5.410061404109001160e-02 -4.362918063998222351e-02 6.929340958595275879e-02 -4.193973168730735779e-02 2.983323857188224792e-02 3.789899498224258423e-02 -3.548461571335792542e-02 -3.058604151010513306e-02 3.454209491610527039e-02 -1.327386009506881237e-03 -6.857855618000030518e-02 -3.575146198272705078e-02 6.916534900665283203e-02 2.961579337716102600e-02 5.615153908729553223e-02 3.311349079012870789e-02 -6.095950305461883545e-02 -7.538096979260444641e-03 -4.123209975659847260e-03 -2.089370973408222198e-02 2.711487933993339539e-02 -4.745532944798469543e-02 -6.112138181924819946e-02 3.029204346239566803e-02 -2.205232344567775726e-02 5.638673529028892517e-02 -3.719630837440490723e-02 -4.158314689993858337e-02 -5.347932130098342896e-02 -5.403954163193702698e-02 -1.007341127842664719e-02 4.918957501649856567e-02 5.390382185578346252e-02 4.893522709608078003e-02 1.505487784743309021e-02 5.239367857575416565e-02 4.951224848628044128e-02 -4.690654948353767395e-02 6.559185683727264404e-02 -3.870476037263870239e-02 1.908991689560934901e-04 9.356121532618999481e-03 4.851058498024940491e-02 -4.578721150755882263e-02 4.917478188872337341e-02 2.406920492649078369e-02 -3.653382137417793274e-02 6.564256548881530762e-02 -6.273774057626724243e-02 -4.614572972059249878e-02 2.620810084044933319e-02 3.821365535259246826e-03 -1.018847711384296417e-02 -4.707727208733558655e-02 -7.461873348802328110e-03 7.016929984092712402e-02 -3.123063407838344574e-02 3.092160914093255997e-03 4.192189127206802368e-02 -4.070172831416130066e-02 -4.387149214744567871e-02 -6.962676346302032471e-02 4.776312969624996185e-03 -2.439899928867816925e-02 2.972343377768993378e-02 -2.119394019246101379e-03 -5.612861737608909607e-02 1.289282925426959991e-02 6.622003018856048584e-02 -6.002368777990341187e-02 -3.310771286487579346e-02 -2.705689892172813416e-02 3.330511972308158875e-02 6.786083430051803589e-02 -3.219573758542537689e-03 -4.712826386094093323e-02 -3.183359978720545769e-03 -4.665014147758483887e-02 -3.706103563308715820e-02 -3.838760033249855042e-02 2.428831160068511963e-02 -6.274908035993576050e-02 -3.083591908216476440e-02 -5.130744725465774536e-02 -3.656814619898796082e-02 5.269404500722885132e-02 -3.121812269091606140e-02 -1.173152471892535686e-03 2.812662906944751740e-02 -3.226105496287345886e-02 -2.326346188783645630e-02 1.903272047638893127e-02 -5.478559434413909912e-02 5.949581414461135864e-02
-6.675799190998077393e-02 -2.052690088748931885e-02 4.254159703850746155e-02 1.355102006345987320e-02 -6.005271524190902710e-02 -3.764023631811141968e-02 5.432035773992538452e-02 -1.340932212769985199e-02 -4.377801343798637390e-02 2.501821704208850861e-02 3.531292825937271118e-02 2.234203182160854340e-02 3.351643308997154236e-02 4.267711192369461060e-02 3.942263498902320862e-02 3.804141655564308167e-02 -2.259531989693641663e-03 -4.387320578098297119e-02 3.182544140145182610e-03 -4.266438260674476624e-02 2.346668392419815063e-02 -1.058817934244871140e-02 1.748440228402614594e-02 7.061760872602462769e-02 -3.546207025647163391e-02 -3.235319256782531738e-02 -6.560924649238586426e-02 6.797022372484207153e-02 4.326003789901733398e-02 -1.618184335529804230e-02 -3.462551161646842957e-02 4.014520440250635147e-03 -1.021264027804136276e-02 5.363269150257110596e-02 4.261325299739837646e-02 2.940487302839756012e-02 -3.784140571951866150e-02 3.295641019940376282e-02 9.120063856244087219e-03 -2.847914397716522217e-02 2.181636635214090347e-03 3.506696224212646484e-02 2.832831069827079773e-02 4.908226057887077332e-02 -4.942579939961433411e-02 3.039729408919811249e-02 8.696051314473152161e-03 1.004933752119541168e-02 -6.076518446207046509e-02 -1.080671790987253189e-02 5.244911462068557739e-02 -2.711740136146545410e-02 7.452805340290069580e-02 3.458596393465995789e-02 5.215250328183174133e-02 -4.306259378790855408e-02 4.775202646851539612e-02 6.173699349164962769e-02 6.265874486416578293e-03 2.889374457299709320e-02 5.052029713988304138e-02 -4.017086699604988098e-02 1.623973622918128967e-02 3.322587162256240845e-02 -4.817283526062965393e-02 1.068262197077274323e-02 3.655302524566650391e-02 5.210953205823898315e-02 -5.463933944702148438e-02 8.003421127796173096e-03 -6.889479700475931168e-03 -9.605983272194862366e-03 -4.972729831933975220e-02 -6.207490712404251099e-02 7.243335992097854614e-02 4.910183139145374298e-03 3.115321882069110870e-02 -2.176113054156303406e-02 -9.273896925151348114e-03 -5.082699283957481384e-02 1.688043400645256042e-02 2.396206557750701904e-02 5.170924961566925049e-02 -4.573667421936988831e-02 -2.692654356360435486e-02 3.379996493458747864e-02 -4.481522366404533386e-02 9.711093734949827194e-04 1.135423220694065094e-02 6.374649703502655029e-02 -5.117769166827201843e-02 -1.681865379214286804e-02 3.169233724474906921e-02 1.425484009087085724e-02 -3.009614162147045135e-02 4.314566031098365784e-02 -1.157036703079938889e-02 -6.543739140033721924e-02 8.042799308896064758e-03 -6.712146103382110596e-02 5.631577223539352417e-02 6.831248849630355835e-02 2.748117595911026001e-02 -5.231678113341331482e-02 -4.202867299318313599e-02 -2.734299749135971069e-03 4.740054532885551453e-02 -1.410764089087024331e-04 2.690526098012924194e-02 -4.327368363738059998e-02 -1.647084951400756836e-02 -3.692086040973663330e-02 7.017340511083602905e-02 3.214799612760543823e-02 5.094743892550468445e-02 -6.937305629253387451e-02 -5.333378911018371582e-02 -5.063174664974212646e-02 6.866154819726943970e-02 -3.196771815419197083e-02 2.746225334703922272e-02 5.665474757552146912e-02 1.342754717916250229e-02 -6.388001888990402222e-02 5.932428315281867981e-02 -1.574882119894027710e-02 6.097340956330299377e-02 -5.537331476807594299e-02 -2.238089777529239655e-02 4.865941032767295837e-02 2.154882811009883881e-02 2.983069233596324921e-02 -4.743364825844764709e-02 -2.030267613008618355e-03 -1.211617514491081238e-02 -4.758702963590621948e-02 1.576065830886363983e-02 3.323276713490486145e-02 1.472536008805036545e-02 -6.650942564010620117e-02 3.773173689842224121e-02 -3.090469725430011749e-02 6.814238149672746658e-03 7.389533519744873047e-02 -2.686386927962303162e-02 -1.781002990901470184e-02 4.429165273904800415e-02 2.588042058050632477e-02 1.624843291938304901e-02 2.674168907105922699e-02 4.408140480518341064e-02 5.286276713013648987e-02 -6.431453675031661987e-02 6.269512232393026352e-03 6.549644470214843750e-02 2.683420665562152863e-02 1.020147278904914856e-02 -5.176731571555137634e-02 5.191739648580551147e-02 4.492897912859916687e-02 -6.425161659717559814e-02 2.731286175549030304e-02 -6.940994411706924438e-02 -3.071310929954051971e-03 -2.106966078281402588e-02 -6.507766991853713989e-02 3.706464916467666626e-02 -6.350676715373992920e-02 1.930529810488224030e-02 1.481394283473491669e-02 -4.716319218277931213e-02 6.570482626557350159e-03 2.672053314745426178e-02 -2.003513649106025696e-02 6.517198681831359863e-02 3.353900834918022156e-02 -4.131360724568367004e-02 5.404471978545188904e-02 -5.024269595742225647e-02 -1.367927063256502151e-02 -1.391212176531553268e-02 4.064197093248367310e-02 -5.823894962668418884e-02 5.823985859751701355e-02 -1.763727329671382904e-02 9.898978285491466522e-03 -4.344116896390914917e-02 -2.594076842069625854e-02 -4.530012980103492737e-02 1.770604588091373444e-02 3.800182417035102844e-02 7.272318750619888306e-02 -5.721778795123100281e-02 -6.380203366279602051e-02 -3.784587979316711426e-02 2.681435085833072662e-02 -5.398278683423995972e-02 -5.995612218976020813e-02 6.070803105831146240e-02 4.483759775757789612e-02
6.002651527523994446e-02 -5.414842627942562103e-03 5.438832938671112061e-02 -5.028248578310012817e-02 -1.536909607239067554e-03 6.253036111593246460e-02 2.784234704449772835e-03 -1.146971713751554489e-02 -5.033035576343536377e-02 1.886978745460510254e-02 -1.279613282531499863e-02 6.837978959083557129e-02 -3.443253925070166588e-03 -6.927656382322311401e-02 4.574871435761451721e-02 2.696237340569496155e-02 6.247710064053535461e-02 -5.178869469091296196e-04 3.252274915575981140e-02 5.976351350545883179e-02 -2.701882272958755493e-03 -7.021566480398178101e-02 6.609454751014709473e-02 2.392717450857162476e-02 -2.230109088122844696e-02 -3.866751492023468018e-02 -5.267440900206565857e-02 -1.509986072778701782e-02 -6.869148463010787964e-02 -2.395390346646308899e-02 -2.739000692963600159e-02 -2.133738249540328979e-02 6.745425611734390259e-02 3.585832566022872925e-02 5.480775609612464905e-02 2.622326090931892395e-02 -4.823796823620796204e-02 3.458039835095405579e-02 1.103289052844047546e-02 -1.289124134927988052e-03 3.547017648816108704e-02 1.154993474483489990e-02 -3.153886646032333374e-02 -6.461696233600378036e-03 2.876500226557254791e-02 -1.657342724502086639e-02 -1.192451175302267075e-02 4.419649019837379456e-02 4.574539512395858765e-02 -6.872063130140304565e-02 -5.278940871357917786e-02 -2.576988004148006439e-02 -3.426586836576461792e-02 -3.157001733779907227e-02 1.057312637567520142e-02 4.875795170664787292e-02 4.717608913779258728e-02 -6.334412842988967896e-02 3.752578794956207275e-02 -6.922877579927444458e-02 5.960204452276229858e-02 4.000393301248550415e-02 -1.585701294243335724e-02 1.758477650582790375e-02 -3.869403153657913208e-02 2.785735391080379486e-02 -4.878080636262893677e-02 1.815429888665676117e-02 -1.458682003431022167e-03 5.348448082804679871e-02 -4.733736068010330200e-02 4.516675323247909546e-02 -9.047193452715873718e-03 -5.337430909276008606e-02 -5.775835737586021423e-02 -4.279548302292823792e-02 4.374954849481582642e-02 6.550546968355774879e-04 -5.588763207197189331e-02 -2.222920022904872894e-02 -5.484029278159141541e-02 2.770164236426353455e-02 -5.180070549249649048e-02 2.119641751050949097e-02 -5.178005993366241455e-02 5.710805952548980713e-02 9.318843483924865723e-03 6.090014800429344177e-02 4.194509983062744141e-02 -3.370071947574615479e-02 5.929862707853317261e-02 4.166914895176887512e-02 -6.040471047163009644e-02 1.856632903218269348e-02 -1.677719689905643463e-02 -3.718618070706725121e-03 5.855163186788558960e-02 5.732973292469978333e-02 1.880926266312599182e-02 -1.860592514276504517e-02 -7.386120501905679703e-03 -2.226926852017641068e-03 -5.868052318692207336e-02 -1.644169166684150696e-02 -4.974538832902908325e-02 8.017531596124172211e-03 -4.976990073919296265e-02 -1.110908226110041142e-03 1.377779059112071991e-02 -1.727872714400291443e-02 3.836459666490554810e-02 5.821533501148223877e-02 -7.029102742671966553e-02 5.315384268760681152e-02 1.040601637214422226e-02 -4.796054214239120483e-02 3.870139271020889282e-02 4.859203472733497620e-02 -3.254843875765800476e-02 -2.005850709974765778e-02 2.315394766628742218e-02 5.038348212838172913e-02 -1.305706799030303955e-02 -6.050512567162513733e-02 -6.051785126328468323e-02 3.625840693712234497e-02 -3.917172551155090332e-03 2.802631817758083344e-02 6.269321590662002563e-02 1.401779241859912872e-02 6.536690145730972290e-02 -1.518320292234420776e-02 -8.716306649148464203e-03 -4.964852705597877502e-02 -9.860112331807613373e-03 5.596341565251350403e-02 6.996525824069976807e-02 -7.063030451536178589e-02 7.206618785858154297e-03 -2.184003219008445740e-02 -6.119249388575553894e-02 3.050995990633964539e-02 -4.875612258911132812e-02 1.875541917979717255e-02 1.131407357752323151e-02 2.316254377365112305e-02 -6.593758612871170044e-02 -4.834609106183052063e-02 -6.537447869777679443e-02 1.059032976627349854e-03 5.285104736685752869e-02 -5.287305265665054321e-02 -6.359348446130752563e-02 3.864461928606033325e-02 6.226535513997077942e-02 -1.861790195107460022e-02 -2.402121759951114655e-02 5.621043592691421509e-02 -1.184297166764736176e-02 4.966940358281135559e-02 -1.472800038754940033e-03 -1.104229222983121872e-02 -1.084955129772424698e-02 -5.470351129770278931e-02 -2.965905331075191498e-02 -5.448312684893608093e-02 5.419706460088491440e-03 -4.854346066713333130e-02 1.215763762593269348e-02 -4.545923322439193726e-02 2.142547629773616791e-02 -5.883460864424705505e-02 5.528085865080356598e-03 4.850653558969497681e-02 -2.351803332567214966e-02 -3.184832632541656494e-02 -5.647591501474380493e-02 -5.522586405277252197e-02 1.838451810181140900e-02 -4.516232386231422424e-02 -4.489938169717788696e-02 -1.566287246532738209e-03 -6.785591691732406616e-02 4.195924103260040283e-02 -4.219242185354232788e-02 -2.923689410090446472e-02 -4.691053181886672974e-02 -3.007249906659126282e-02 5.760556831955909729e-02 -3.589136153459548950e-02 -4.228138551115989685e-02 -5.248070880770683289e-02 6.869009882211685181e-02 4.112467542290687561e-02 5.442737601697444916e-03 -6.722254306077957153e-02 3.734596073627471924e-02 -6.094771996140480042e-02 3.454484418034553528e-02 -3.055126778781414032e-02
2.034597285091876984e-02 -3.713666275143623352e-02 6.210960075259208679e-02 5.621948093175888062e-02 -5.323464795947074890e-02 4.090462252497673035e-02 -2.979703061282634735e-02 2.427777275443077087e-02 -6.069330871105194092e-02 7.844085246324539185e-02 5.646226182579994202e-02 6.047175079584121704e-02 1.207136455923318863e-02 6.573206186294555664e-02 5.067832022905349731e-02 -1.147296279668807983e-02 6.509599089622497559e-02 6.061406806111335754e-02 -4.349192604422569275e-02 -8.321767300367355347e-02 1.389236468821763992e-02 -5.266398936510086060e-02 5.143917351961135864e-02 5.034689232707023621e-02 -4.142420366406440735e-02 1.794861257076263428e-02 7.065635919570922852e-02 -4.369520768523216248e-02 2.315805479884147644e-02 -9.510044008493423462e-03 -5.227006971836090088e-02 2.589821629226207733e-02 5.328027904033660889e-02 1.651007100008428097e-03 -6.557091325521469116e-02 4.973906278610229492e-02 2.779229916632175446e-02 3.771025687456130981e-02 2.628868259489536285e-02 9.870356880128383636e-03 -5.581573396921157837e-02 8.826422505080699921e-03 -3.401342779397964478e-02 5.447092652320861816e-02 1.233753096312284470e-02 5.836246162652969360e-02 1.206057146191596985e-02 -6.020354107022285461e-02 -2.938886545598506927e-02 3.501944616436958313e-02 -1.358174998313188553e-02 3.837687894701957703e-02 9.642104059457778931e-02 -4.549321904778480530e-02 2.013644203543663025e-02 -5.200756341218948364e-02 -4.703581705689430237e-02 -6.542272120714187622e-02 -2.043629623949527740e-02 3.075025416910648346e-02 -1.156875805463641882e-04 6.044084206223487854e-02 -2.500296803191304207e-03 -1.530357729643583298e-02 1.567395403981208801e-02 -8.492835797369480133e-03 3.243246302008628845e-02 3.643095120787620544e-02 8.423477411270141602e-02 -4.253951832652091980e-02 -4.071244969964027405e-02 -1.732750912196934223e-03 -1.354603562504053116e-02 2.283240482211112976e-02 5.454719066619873047e-02 -1.842552237212657928e-02 9.776619262993335724e-03 -2.727987430989742279e-02 5.256145447492599487e-02 4.815474152565002441e-02 7.134011015295982361e-03 7.261563092470169067e-02 3.638384118676185608e-02 -2.906461060047149658e-02 1.728115417063236237e-02 6.014110893011093140e-02 -5.610195803456008434e-04 4.914569854736328125e-02 1.011557690799236298e-02 -5.696945264935493469e-02 -6.527249515056610107e-02 -4.681741446256637573e-02 9.604824706912040710e-03 -3.162457048892974854e-02 -1.882939785718917847e-02 -4.782865196466445923e-02 2.683165855705738068e-02 -8.896809071302413940e-03 1.500355824828147888e-02 5.428093671798706055e-02 -3.777532652020454407e-02 -1.124532707035541534e-02 -4.365488141775131226e-02 3.326959558762609959e-04 4.893205687403678894e-02 -4.433481022715568542e-02 3.418306121602654457e-03 9.203333407640457153e-02 5.705142766237258911e-02 6.441111117601394653e-02 3.514400869607925415e-02 -7.337136659771203995e-03 -2.682578377425670624e-02 6.882337387651205063e-03 1.477800030261278152e-02 -5.990835651755332947e-02 -7.062873244285583496e-02 1.384086068719625473e-02 4.576419293880462646e-02 -4.045655578374862671e-02 -4.308247566223144531e-02 -5.111305415630340576e-02 1.557443570345640182e-02 2.675535902380943298e-02 7.254068553447723389e-02 -1.083023473620414734e-02 -1.960076950490474701e-02 -1.239566970616579056e-02 -9.403613395988941193e-03 5.218664556741714478e-02 3.844237327575683594e-02 -4.119678214192390442e-02 6.226542592048645020e-02 8.699708431959152222e-02 6.250675022602081299e-02 5.224088951945304871e-02 4.155910387635231018e-02 7.060208916664123535e-02 3.203198686242103577e-02 -6.555756926536560059e-02 -1.857618428766727448e-02 -3.483383730053901672e-02 6.971955299377441406e-02 -2.263147383928298950e-02 3.800122439861297607e-02 1.100916974246501923e-02 -4.461712017655372620e-02 1.982658728957176208e-02 -6.613592058420181274e-02 9.782327339053153992e-03 8.022347092628479004e-02 -1.140869967639446259e-02 -4.818007722496986389e-02 -4.388195276260375977e-02 -2.512692473828792572e-02 3.471742570400238037e-02 7.620798051357269287e-02 4.339626803994178772e-02 -8.152480423450469971e-02 -1.066720206290483475e-02 7.432239502668380737e-02 -7.082717865705490112e-02 -5.698382854461669922e-02 -2.697025984525680542e-02 8.465956896543502808e-02 5.818034708499908447e-02 6.615879386663436890e-02 4.082686454057693481e-02 -1.823851652443408966e-02 -7.042244821786880493e-02 5.236268043518066406e-02 -1.818633452057838440e-02 5.990457907319068909e-02 7.812054455280303955e-02 2.888938598334789276e-02 8.629378676414489746e-02 -5.412650853395462036e-02 7.124271988868713379e-02 -9.334508329629898071e-03 1.925753429532051086e-02 -6.865391880273818970e-02 4.992638900876045227e-02 -7.901886478066444397e-03 -5.683068186044692993e-02 4.583550244569778442e-02 -6.263414025306701660e-02 -5.385671928524971008e-02 5.374799296259880066e-02 -6.716444157063961029e-03 2.238672785460948944e-02 -1.723821088671684265e-02 4.292702302336692810e-02 -6.451611220836639404e-02 -3.157060220837593079e-02 4.797350242733955383e-02 -4.117148742079734802e-02 -7.117971777915954590e-02 2.434679679572582245e-02 3.844079747796058655e-02 3.057098574936389923e-02
4.616144299507141113e-02 7.850169390439987183e-02 2.511311508715152740e-02 5.925754830241203308e-02 -1.740271970629692078e-02 4.212843719869852066e-03 -9.848380461335182190e-03 9.529728442430496216e-02 6.766380369663238525e-02 -9.149696677923202515e-03 -5.538924038410186768e-02 -4.540272802114486694e-02 3.057625330984592438e-02 4.234994947910308838e-02 6.031312420964241028e-02 2.428857423365116119e-02 -3.672669874504208565e-03 4.612196981906890869e-02 -1.265596691519021988e-02 -4.874589666724205017e-02 -4.773788899183273315e-02 1.835058629512786865e-02 -1.136271655559539795e-02 -6.315170973539352417e-02 -5.471782758831977844e-02 5.695767700672149658e-02 3.925408050417900085e-02 3.921570256352424622e-03 3.229949995875358582e-02 -3.418096527457237244e-02 -3.386668860912322998e-02 6.255289912223815918e-02 3.065081126987934113e-02 5.282326135784387589e-03 3.110107406973838806e-02 3.629793599247932434e-02 2.630109712481498718e-02 7.138086110353469849e-02 -2.946850098669528961e-02 7.991885393857955933e-02 -5.779357627034187317e-02 -3.104635141789913177e-02 -9.300681762397289276e-03 1.171648036688566208e-02 -1.246722228825092316e-02 5.163306742906570435e-02 -9.369154577143490314e-05 2.185112424194812775e-02 6.293774396181106567e-02 3.900368139147758484e-02 5.813525617122650146e-02 3.408286347985267639e-02 -3.235730528831481934e-02 2.582373470067977905e-02 -6.154551729559898376e-02 2.363110892474651337e-02 -3.371654078364372253e-02 -2.999997325241565704e-02 -6.461162865161895752e-02 -3.871865198016166687e-02 6.925191730260848999e-02 -5.006593838334083557e-02 1.957794092595577240e-02 3.737886622548103333e-02 -4.514177143573760986e-02 7.100895792245864868e-02 -3.897738829255104065e-02 -4.085132107138633728e-02 5.016178265213966370e-02 -1.804373599588871002e-02 6.288489326834678650e-03 4.292716830968856812e-02 5.757115036249160767e-02 6.670011207461357117e-03 2.323432266712188721e-02 -2.746626175940036774e-02 -2.320936135947704315e-02 2.646344341337680817e-02 2.931419573724269867e-02 -1.017069094814360142e-03 -1.263177860528230667e-02 7.206706702709197998e-02 7.052090764045715332e-02 7.970407605171203613e-02 1.667093671858310699e-02 2.937313541769981384e-02 -5.479526147246360779e-02 7.450240850448608398e-02 -4.039765521883964539e-02 1.270603295415639877e-02 4.802836105227470398e-02 -5.497716367244720459e-02 2.321209758520126343e-02 7.992115803062915802e-03 9.116285480558872223e-03 7.937610894441604614e-02 1.955997198820114136e-02 -2.668845467269420624e-02 7.112881541252136230e-02 1.012672437354922295e-03 -2.423158660531044006e-02 4.253488779067993164e-02 7.463225722312927246e-02 6.525883078575134277e-02 -1.437486056238412857e-02 4.112096969038248062e-03 7.276839576661586761e-03 -5.795356351882219315e-03 -5.151283368468284607e-02 -3.730830922722816467e-02 -3.825156018137931824e-02 3.776421770453453064e-02 4.542154818773269653e-02 -1.357273478060960770e-02 -2.111254818737506866e-02 8.894479833543300629e-03 -5.182969570159912109e-02 -4.284869879484176636e-02 1.058612018823623657e-02 -2.143732272088527679e-02 4.005535319447517395e-02 6.429156661033630371e-02 -1.467518974095582962e-02 -3.905751928687095642e-02 -4.623067006468772888e-02 -4.952640831470489502e-02 -2.289891242980957031e-02 5.772496759891510010e-02 4.449020326137542725e-02 9.571078233420848846e-03 4.668612033128738403e-02 -4.766622185707092285e-02 6.169903650879859924e-02 3.582824021577835083e-02 -2.447883784770965576e-02 2.669873461127281189e-02 -4.981947131454944611e-03 8.432686328887939453e-02 4.757354035973548889e-02 -4.376339539885520935e-02 7.414139062166213989e-02 -7.087186723947525024e-02 5.861088261008262634e-02 8.583575487136840820e-02 6.933348625898361206e-02 5.876682698726654053e-02 -2.363244444131851196e-02 -5.176948383450508118e-02 -1.540655270218849182e-02 -3.867593407630920410e-02 2.159243449568748474e-02 -4.593917727470397949e-02 1.608833670616149902e-02 -1.063853222876787186e-02 -4.496182128787040710e-02 2.392140775918960571e-02 8.043809235095977783e-02 2.146029286086559296e-02 6.595871597528457642e-02 8.215683698654174805e-02 -4.215619701426476240e-04 -6.914285570383071899e-02 -4.160124517511576414e-04 -5.411319807171821594e-02 6.391923129558563232e-02 -6.082945689558982849e-02 4.470109567046165466e-02 -5.676915124058723450e-02 -1.864688284695148468e-02 -3.291571885347366333e-02 -2.813230501487851143e-03 -1.137654879130423069e-03 7.473216950893402100e-02 9.449224919080734253e-03 -6.389863044023513794e-02 1.005976423621177673e-01 3.267929330468177795e-02 -2.744989842176437378e-02 8.212285488843917847e-02 1.629325374960899353e-02 5.535234883427619934e-02 3.428403986617922783e-03 1.806043647229671478e-02 -4.614876955747604370e-02 -6.831590086221694946e-02 -4.423791170120239258e-02 -1.238095387816429138e-02 3.115285187959671021e-02 5.273610725998878479e-02 4.569737613201141357e-02 -3.269217908382415771e-02 -3.582804650068283081e-02 8.007060736417770386e-02 -4.527295753359794617e-02 6.771124899387359619e-02 -3.929466381669044495e-02 6.703785061836242676e-02 -2.086874283850193024e-02 6.334231793880462646e-02 -2.075667725875973701e-03
-6.755819194950163364e-04 -5.772922653704881668e-03 -4.410164430737495422e-02 4.074130207300186157e-02 -1.786235161125659943e-02 8.976830169558525085e-03 -6.427788734436035156e-02 -4.646441433578729630e-03 4.343383386731147766e-02 5.350995063781738281e-02 -6.214765366166830063e-03 5.099926143884658813e-02 7.614923175424337387e-03 5.385687574744224548e-02 5.986287072300910950e-02 -1.808571442961692810e-02 8.934759534895420074e-03 1.437222957611083984e-02 -5.124584212899208069e-02 -6.426973268389701843e-03 -6.915296614170074463e-02 2.250946685671806335e-02 -1.296838652342557907e-02 1.781027577817440033e-02 -1.745854876935482025e-02 4.837921261787414551e-02 -6.643713265657424927e-02 -6.916221231222152710e-02 3.873384092003107071e-03 1.157830655574798584e-02 6.578024476766586304e-02 -3.088578581809997559e-02 -6.146109104156494141e-02 -4.333486035466194153e-02 3.795313835144042969e-02 6.806079298257827759e-02 4.781522974371910095e-02 4.892457649111747742e-02 2.852763980627059937e-02 6.367326527833938599e-02 -5.086822807788848877e-02 -1.344006415456533432e-02 3.849490731954574585e-02 -6.733388453722000122e-02 3.792048618197441101e-02 5.322122015058994293e-03 3.893480449914932251e-02 5.058519914746284485e-02 -6.043062731623649597e-02 1.731246523559093475e-02 -4.811238870024681091e-02 5.598498880863189697e-02 -4.654661566019058228e-02 -2.193944342434406281e-02 -3.072879090905189514e-02 1.083815284073352814e-02 -4.368270933628082275e-02 -5.361801013350486755e-02 5.400826036930084229e-02 -2.724763192236423492e-02 2.613912336528301239e-03 5.220739543437957764e-02 -2.246280759572982788e-02 -3.595958929508924484e-03 8.897267282009124756e-03 -1.130217779427766800e-02 -4.754349216818809509e-02 -2.687853202223777771e-02 -6.074054166674613953e-02 -4.783094301819801331e-02 2.201099693775177002e-02 1.732792891561985016e-02 4.389172419905662537e-02 -4.327714443206787109e-02 -3.398379310965538025e-02 -2.335643582046031952e-02 6.530622392892837524e-02 3.269123286008834839e-02 -1.257914863526821136e-02 -1.903272420167922974e-02 -3.556025773286819458e-02 5.986541509628295898e-02 -4.609220474958419800e-02 -5.673932656645774841e-02 4.507393762469291687e-02 3.222695738077163696e-02 -2.972119301557540894e-02 -4.347824677824974060e-02 -2.013303525745868683e-02 6.329651921987533569e-02 -3.140035644173622131e-02 1.032237708568572998e-02 8.823865093290805817e-03 1.610216684639453888e-02 2.817671746015548706e-02 2.345721237361431122e-03 -5.531898513436317444e-02 1.735464297235012054e-02 6.372711062431335449e-02 -4.458209034055471420e-03 1.017008721828460693e-02 -9.607797488570213318e-03 -3.683734685182571411e-02 -6.292460858821868896e-02 2.800227142870426178e-02 5.976792797446250916e-02 -4.653106629848480225e-02 -1.020257361233234406e-02 1.975930854678153992e-02 -6.654839962720870972e-02 -6.326650083065032959e-02 5.222376063466072083e-02 -2.989081479609012604e-02 -4.649749491363763809e-03 2.505979966372251511e-03 -1.561699435114860535e-02 2.678030915558338165e-02 2.133388072252273560e-02 -4.685729742050170898e-02 2.626737765967845917e-02 -6.007113307714462280e-02 6.324116140604019165e-02 2.787681482732295990e-02 5.037142708897590637e-02 4.429778829216957092e-02 -2.812634781002998352e-02 -2.524858713150024414e-02 -5.530585069209337234e-03 -5.666252691298723221e-04 6.619846075773239136e-02 -7.038673385977745056e-03 -6.772623211145401001e-02 -1.399335544556379318e-02 -1.115247141569852829e-02 -1.739013195037841797e-02 8.484681136906147003e-03 3.528848662972450256e-02 -4.138112068176269531e-02 6.779481470584869385e-02 3.803628683090209961e-02 -2.020293474197387695e-02 -6.673967838287353516e-02 -6.695343554019927979e-02 5.544386804103851318e-02 -5.877617746591567993e-02 -5.739025026559829712e-02 -3.430540859699249268e-02 -5.233862251043319702e-02 -6.785348802804946899e-02 -8.000533096492290497e-03 6.369862705469131470e-02 1.254870463162660599e-02 6.615596264600753784e-02 -7.073285430669784546e-02 -5.110182333737611771e-03 -5.262026935815811157e-02 2.591074816882610321e-02 6.818784866482019424e-03 -3.888450935482978821e-02 1.540397759526968002e-02 5.110754817724227905e-02 -5.158544331789016724e-02 -6.214511394500732422e-02 6.386978086084127426e-03 -3.485690802335739136e-02 -3.247238323092460632e-02 3.601046651601791382e-02 -2.251236326992511749e-02 -4.813656210899353027e-03 2.566273510456085205e-02 -1.919640414416790009e-02 -4.701804369688034058e-02 -4.870226234197616577e-02 4.703986644744873047e-02 -3.735653357580304146e-03 3.489093109965324402e-02 -3.301734477281570435e-02 -1.652160659432411194e-02 1.872251741588115692e-02 5.598958954215049744e-02 3.350239619612693787e-02 -1.044746022671461105e-02 5.773917585611343384e-02 5.424742400646209717e-02 -5.402754992246627808e-03 3.576892614364624023e-02 3.342209756374359131e-02 4.208987951278686523e-02 -4.318424034863710403e-03 6.273404508829116821e-02 2.136754989624023438e-02 5.202444270253181458e-02 1.955302432179450989e-03 -2.351710759103298187e-02 -4.184345528483390808e-02 1.091069262474775314e-02 -3.776391968131065369e-02 -6.973300129175186157e-02 -6.383001804351806641e-02 1.311559695750474930e-03
-6.036456674337387085e-02 7.058607041835784912e-02 3.977109491825103760e-02 -6.317944079637527466e-02 3.385315835475921631e-02 6.083819549530744553e-03 1.246020477265119553e-02 -1.161979325115680695e-02 -1.316572632640600204e-02 3.093718551099300385e-02 3.194656595587730408e-02 5.562772229313850403e-02 -3.906907886266708374e-02 3.451142832636833191e-02 3.192331641912460327e-02 -5.312226712703704834e-02 -6.112799793481826782e-02 -1.458972506225109100e-02 3.102165833115577698e-02 7.126490771770477295e-02 -1.384583301842212677e-02 3.057070076465606689e-03 5.112877115607261658e-02 6.298311799764633179e-02 -8.760884404182434082e-03 3.303965181112289429e-02 3.328397870063781738e-02 6.406353414058685303e-02 2.248837612569332123e-02 1.960295625030994415e-02 1.491755899041891098e-02 2.579640597105026245e-02 -1.714832894504070282e-02 1.882464997470378876e-02 4.522411897778511047e-02 1.853259839117527008e-02 6.845872849225997925e-02 4.270584508776664734e-02 3.198398277163505554e-02 -6.761288736015558243e-03 -5.374452471733093262e-02 -3.902146965265274048e-02 -6.769445724785327911e-03 -2.648316696286201477e-02 4.063242673873901367e-02 -4.251184687018394470e-02 5.458524078130722046e-02 -5.063772201538085938e-02 -6.285567581653594971e-02 6.696309149265289307e-02 -2.036051265895366669e-02 -4.957634583115577698e-02 -7.584257517009973526e-03 4.573881253600120544e-02 5.058174207806587219e-02 2.507636509835720062e-02 -2.084623090922832489e-02 -5.103688314557075500e-02 4.627403244376182556e-02 6.318922620266675949e-03 -4.023880138993263245e-02 -3.446154296398162842e-02 -4.923963546752929688e-02 -1.600313931703567505e-02 5.091497441753745079e-04 7.723674923181533813e-02 6.210437417030334473e-02 -4.955587792210280895e-04 4.982050508260726929e-02 -8.666099049150943756e-03 -1.827884651720523834e-02 3.044919855892658234e-02 1.370781566947698593e-02 3.168515861034393311e-02 3.328859433531761169e-02 3.427135199308395386e-02 2.414888702332973480e-02 -1.339097414165735245e-02 1.453724689781665802e-02 7.356613874435424805e-02 5.006983876228332520e-02 -3.051988594233989716e-02 6.659458577632904053e-02 -1.484706904739141464e-02 9.707767749205231667e-04 9.461653418838977814e-03 6.764586269855499268e-02 -5.483716353774070740e-02 5.654221400618553162e-02 4.654466733336448669e-02 2.200246043503284454e-02 2.927847020328044891e-02 4.157899413257837296e-03 -5.719989538192749023e-02 3.087850660085678101e-02 8.724651299417018890e-03 5.467470735311508179e-03 -3.308150172233581543e-02 -1.348016411066055298e-02 3.867638856172561646e-02 5.138815939426422119e-02 -3.952515125274658203e-02 3.052866831421852112e-02 -4.215731471776962280e-02 -3.087046183645725250e-02 7.340215612202882767e-03 3.001094423234462738e-02 8.917093276977539062e-02 -2.960381470620632172e-02 -8.701971732079982758e-03 -1.643463619984686375e-03 -2.328258007764816284e-02 2.962721697986125946e-02 5.745899304747581482e-02 3.518331050872802734e-02 3.355259075760841370e-02 2.984772808849811554e-02 -2.973586320877075195e-02 -4.017497971653938293e-02 -5.647521466016769409e-02 4.374857246875762939e-02 -4.972691088914871216e-02 -3.247666358947753906e-02 4.005329683423042297e-03 -1.241591293364763260e-02 2.619958110153675079e-02 4.470016062259674072e-02 -6.467179954051971436e-02 -4.080629721283912659e-02 4.745544865727424622e-02 6.374843418598175049e-02 6.249985843896865845e-02 3.885877132415771484e-02 -1.098227687180042267e-02 6.895173341035842896e-02 -4.796684905886650085e-02 5.554168671369552612e-02 4.271204024553298950e-02 -4.746916890144348145e-02 -1.144781615585088730e-02 4.301893711090087891e-02 2.150404080748558044e-02 -1.061529573053121567e-02 -3.196630859747529030e-04 3.717091679573059082e-02 4.906033724546432495e-02 -1.709054782986640930e-02 -5.202383035793900490e-04 -3.541542962193489075e-02 -4.512074217200279236e-02 7.066529244184494019e-02 -5.482634529471397400e-02 1.710962690412998199e-02 -5.965233221650123596e-02 -4.902479797601699829e-02 -1.236872165463864803e-03 -2.983505465090274811e-02 -8.277026936411857605e-03 7.911109924316406250e-02 -8.093838579952716827e-03 2.610045857727527618e-02 -3.941775113344192505e-02 6.564908195286989212e-03 4.528290778398513794e-02 -2.194967679679393768e-02 -1.848878711462020874e-02 1.043882127851247787e-02 -3.267407044768333435e-02 6.932304054498672485e-02 -3.135388717055320740e-02 -5.052297934889793396e-02 -4.657711088657379150e-02 -4.176123440265655518e-02 1.876660995185375214e-02 -5.901515483856201172e-02 5.742313712835311890e-02 3.041543997824192047e-02 5.044299736618995667e-02 2.202298492193222046e-02 1.618978939950466156e-02 -1.414504274725914001e-02 7.934942841529846191e-04 3.922826424241065979e-02 -1.192574761807918549e-02 -6.434577703475952148e-02 3.121477179229259491e-02 -4.137220606207847595e-02 4.133180528879165649e-02 4.960730671882629395e-02 5.349295586347579956e-02 -5.410654842853546143e-02 2.903346531093120575e-02 2.720826491713523865e-02 -5.397670343518257141e-02 -5.093785375356674194e-02 2.982988022267818451e-02 6.091602146625518799e-02 -2.250868454575538635e-02 1.984330452978610992e-02 -6.725343316793441772e-02
3.473790362477302551e-02 1.716916821897029877e-02 6.477500777691602707e-03 -4.742880165576934814e-02 1.961174048483371735e-02 5.869673565030097961e-02 1.286776363849639893e-02 -4.881460592150688171e-02 7.423018105328083038e-03 1.893871463835239410e-02 -6.443829834461212158e-02 4.848549142479896545e-02 6.942432839423418045e-03 4.500353708863258362e-02 6.228689104318618774e-03 -5.025119334459304810e-02 -4.147562384605407715e-02 6.311877816915512085e-02 -1.101010292768478394e-02 -5.273697152733802795e-02 -5.708364769816398621e-02 -8.292354759760200977e-04 -6.103024259209632874e-02 1.619277056306600571e-03 -3.905412927269935608e-02 -2.547378093004226685e-02 1.153321098536252975e-02 -6.335351616144180298e-02 2.365867141634225845e-03 -4.604597017168998718e-02 -5.487867444753646851e-02 -6.214351952075958252e-02 -5.317567661404609680e-02 -1.646875031292438507e-02 -5.764760822057723999e-02 -4.324776679277420044e-02 1.971278153359889984e-02 3.594938665628433228e-02 3.977021947503089905e-02 -1.149543281644582748e-02 2.467541210353374481e-02 5.102499574422836304e-02 -6.074655801057815552e-02 5.317478999495506287e-02 3.446746617555618286e-02 9.555948898196220398e-03 -6.570706516504287720e-02 6.336525827646255493e-02 -6.618383526802062988e-02 4.043309949338436127e-03 -8.230839855968952179e-03 -3.671741858124732971e-02 -3.335084533318877220e-03 3.626206144690513611e-02 3.065434470772743225e-02 -5.368029698729515076e-02 6.148590520024299622e-02 4.446562379598617554e-02 5.771615728735923767e-02 -7.310286909341812134e-02 2.627317048609256744e-02 -7.590802386403083801e-03 -1.131359767168760300e-02 -6.338234245777130127e-02 -1.694147102534770966e-02 -6.520701944828033447e-02 4.339698702096939087e-02 1.460029743611812592e-02 1.056239381432533264e-02 1.972554437816143036e-02 -2.098319306969642639e-02 3.497080132365226746e-02 -7.082054764032363892e-02 2.117842249572277069e-02 7.291547209024429321e-02 -6.659404840320348740e-03 1.682900451123714447e-02 -4.679231345653533936e-02 -2.432103455066680908e-02 -4.324339330196380615e-02 -7.047151215374469757e-03 5.465222150087356567e-02 3.290093690156936646e-02 -3.897105157375335693e-02 6.232781335711479187e-02 -2.133355475962162018e-02 -2.910246700048446655e-02 4.097954556345939636e-02 -2.622968051582574844e-03 -9.064696729183197021e-03 5.547618120908737183e-02 2.683688513934612274e-02 6.989060342311859131e-02 -4.814540594816207886e-02 -7.076432928442955017e-03 4.268323630094528198e-02 4.989569261670112610e-02 -5.438770633190870285e-03 6.261152029037475586e-02 3.372077131643891335e-03 -5.610734224319458008e-03 4.278411716222763062e-02 8.811908774077892303e-03 6.527081876993179321e-02 -2.043621428310871124e-02 -2.511421591043472290e-02 6.664023548364639282e-02 3.843178972601890564e-02 5.927003920078277588e-02 -5.232431367039680481e-02 4.420471563935279846e-02 5.748447775840759277e-02 -7.477308064699172974e-02 -1.794816739857196808e-02 7.182519882917404175e-02 -6.767545640468597412e-02 -3.472478315234184265e-02 5.725263804197311401e-02 -7.177668623626232147e-03 3.277721814811229706e-03 6.405629962682723999e-02 3.636159002780914307e-02 -3.730253875255584717e-02 4.111237823963165283e-03 3.311091661453247070e-02 -3.677087137475609779e-03 -2.289489656686782837e-02 -3.584685549139976501e-02 -1.348283700644969940e-02 -5.586490035057067871e-02 -2.841118164360523224e-02 -4.638234153389930725e-02 4.731292277574539185e-02 -4.484216123819351196e-02 2.668827213346958160e-02 3.748401254415512085e-02 6.777559965848922729e-02 6.131163612008094788e-02 -2.572360076010227203e-02 -3.249486908316612244e-02 2.650064975023269653e-02 -7.200084626674652100e-02 4.528057202696800232e-02 2.590613253414630890e-02 -4.100181162357330322e-02 -1.434851624071598053e-02 -3.535763546824455261e-02 4.208507388830184937e-02 2.831119811162352562e-03 -1.192540116608142853e-02 5.470884218811988831e-02 5.616335570812225342e-02 5.885367467999458313e-02 1.163883600383996964e-02 1.629514060914516449e-02 4.052314907312393188e-02 2.293754927814006805e-02 -6.871993094682693481e-02 2.614091336727142334e-02 2.685667015612125397e-02 -2.787436731159687042e-02 3.984879702329635620e-02 4.913832247257232666e-02 5.396847054362297058e-02 -1.635927148163318634e-02 -1.457072887569665909e-02 -5.120002478361129761e-02 -3.990155085921287537e-02 -3.519067168235778809e-02 -5.580645799636840820e-02 1.572127267718315125e-02 -6.802573800086975098e-02 3.519985824823379517e-02 5.894840881228446960e-02 4.099785909056663513e-02 7.341892272233963013e-02 3.595260158181190491e-02 7.897822558879852295e-02 5.087881535291671753e-02 1.089486526325345039e-03 2.794574387371540070e-02 6.190264597535133362e-02 5.423990637063980103e-02 -6.042170897126197815e-02 -5.819545686244964600e-02 3.680564090609550476e-02 -4.518900811672210693e-02 -3.964546695351600647e-02 -2.859739214181900024e-02 -2.935253456234931946e-02 4.086614772677421570e-02 3.887971118092536926e-02 -1.077348645776510239e-02 -6.929558236151933670e-03 -5.359959974884986877e-02 -7.492927834391593933e-04 4.126115888357162476e-02 -6.097906455397605896e-02 2.488823840394616127e-03 1.503485720604658127e-02
-6.314712762832641602e-02 1.755213737487792969e-02 1.524688117206096649e-02 1.773777231574058533e-02 1.723437942564487457e-02 6.039876863360404968e-02 3.980452567338943481e-02 5.764440819621086121e-02 -2.969286963343620300e-02 8.554658270440995693e-04 5.621046945452690125e-02 -1.516745775006711483e-03 -3.958285972476005554e-02 -5.510705709457397461e-02 -6.229200586676597595e-02 5.730622634291648865e-02 -2.627982012927532196e-02 3.819227218627929688e-02 8.295383304357528687e-03 2.754658646881580353e-02 -6.113230809569358826e-02 2.393789589405059814e-02 -3.012791648507118225e-02 -2.955843694508075714e-03 5.082698073238134384e-03 -3.700002282857894897e-02 3.477863594889640808e-02 1.752663031220436096e-02 -4.261618107557296753e-02 2.639947086572647095e-02 6.500364094972610474e-02 4.018846433609724045e-03 2.375248447060585022e-02 3.581726923584938049e-02 -9.400415234267711639e-03 -1.660743355751037598e-02 7.087078690528869629e-02 -4.314921051263809204e-02 9.001471102237701416e-03 2.653225883841514587e-02 -2.561134658753871918e-02 1.275136414915323257e-02 -1.064276043325662613e-02 2.010270394384860992e-02 -5.727105215191841125e-02 2.458055876195430756e-02 3.426580503582954407e-02 6.245029717683792114e-02 1.561781018972396851e-02 -1.315499283373355865e-02 6.229687482118606567e-02 -6.564914248883724213e-03 1.470603793859481812e-02 1.844430342316627502e-02 2.367259003221988678e-02 3.627948090434074402e-02 5.203054286539554596e-03 6.742678582668304443e-02 3.574710711836814880e-02 4.703833907842636108e-02 1.502286922186613083e-02 -7.133824378252029419e-02 7.288844883441925049e-02 6.187289580702781677e-02 -6.572016328573226929e-02 -5.776032805442810059e-03 6.070929765701293945e-02 -7.047861814498901367e-02 -4.700743407011032104e-02 -4.121080413460731506e-02 4.579200595617294312e-02 3.123916871845722198e-02 1.927293650805950165e-02 -7.234098389744758606e-03 6.735097151249647141e-03 5.689716339111328125e-02 -5.555981025099754333e-02 2.645196951925754547e-02 -5.123163387179374695e-02 4.464872553944587708e-02 4.427300393581390381e-02 -3.618131577968597412e-02 -1.254918519407510757e-03 -1.755071617662906647e-02 3.411125019192695618e-02 -1.785728707909584045e-02 -1.949135586619377136e-02 3.778254985809326172e-02 2.675537392497062683e-02 -3.387917578220367432e-02 -5.334473773837089539e-02 -1.940077729523181915e-02 -5.533393844962120056e-02 6.363013386726379395e-02 1.584628014825284481e-03 -5.314231291413307190e-02 -6.512203812599182129e-02 4.541542753577232361e-02 -2.865730598568916321e-02 -5.632572248578071594e-02 -6.660563498735427856e-02 -2.157784439623355865e-02 4.948686808347702026e-02 -5.439026281237602234e-02 3.147147595882415771e-02 1.562126353383064270e-02 -2.310894243419170380e-02 -6.802732497453689575e-02 6.225767359137535095e-02 -1.537491846829652786e-02 -4.853879660367965698e-02 6.801009178161621094e-02 -1.195454783737659454e-02 -5.869704112410545349e-02 1.070975326001644135e-02 5.463465303182601929e-02 1.989810913801193237e-02 -2.245838195085525513e-02 5.387942120432853699e-02 -5.126418173313140869e-02 3.198384121060371399e-02 3.324251621961593628e-03 -2.888715639710426331e-02 6.164454296231269836e-02 9.717125445604324341e-03 4.340807348489761353e-02 4.841015115380287170e-02 6.629751622676849365e-02 2.570629678666591644e-02 2.680307067930698395e-02 -3.605493903160095215e-02 -3.341097757220268250e-02 -2.963843522593379021e-03 2.323461882770061493e-02 -1.493207458406686783e-02 2.086183615028858185e-02 -1.618633419275283813e-02 -4.081293195486068726e-02 -6.322810053825378418e-02 1.948853395879268646e-02 -6.256730109453201294e-02 1.822994276881217957e-02 -3.123821504414081573e-02 -3.002427890896797180e-02 4.120043665170669556e-02 2.188080735504627228e-02 -4.801260307431221008e-02 -1.704799942672252655e-02 -9.928950108587741852e-03 7.480803877115249634e-03 6.495634466409683228e-02 2.010020427405834198e-02 -4.374245181679725647e-03 6.475920230150222778e-02 6.253232061862945557e-02 -1.459219399839639664e-02 -7.821400067768990993e-04 -6.847738474607467651e-02 7.739318907260894775e-02 3.294354071840643883e-03 -4.512318223714828491e-02 3.677970543503761292e-02 -3.539987280964851379e-02 6.320620328187942505e-02 -6.328947842121124268e-02 -7.078541442751884460e-03 -1.006356067955493927e-02 -1.985676400363445282e-02 6.950169801712036133e-02 6.422615051269531250e-02 1.783741638064384460e-02 3.799804300069808960e-02 2.028714306652545929e-02 -2.456508390605449677e-02 -6.449761986732482910e-02 -6.145357154309749603e-03 3.899675561115145683e-03 5.761160701513290405e-02 1.437904872000217438e-02 4.148594569414854050e-03 -6.287334114313125610e-02 -2.875356003642082214e-02 6.328620761632919312e-02 2.598645910620689392e-02 2.494091540575027466e-02 1.844053529202938080e-02 -4.421532154083251953e-02 2.197519503533840179e-02 -1.608248217962682247e-03 2.448991872370243073e-02 -3.547127917408943176e-02 -3.774351999163627625e-02 -3.747085481882095337e-02 1.393541228026151657e-02 3.227152675390243530e-02 -1.142022386193275452e-02 6.772481650114059448e-02 -6.447864696383476257e-03 -6.098737940192222595e-02 5.237790197134017944e-02
-1.894706115126609802e-02 -2.231030538678169250e-02 3.124240040779113770e-02 5.545463413000106812e-02 3.627662733197212219e-02 -1.988220587372779846e-02 -2.754160016775131226e-02 -2.902199700474739075e-02 -4.753432795405387878e-02 -4.175045341253280640e-02 -6.713780015707015991e-02 3.136249631643295288e-02 -6.597708910703659058e-02 3.304870799183845520e-03 1.780340820550918579e-02 6.870558112859725952e-02 -2.811557799577713013e-02 -3.417010232806205750e-02 -4.354862868785858154e-02 -3.689742088317871094e-02 -1.823727414011955261e-02 1.111293304711580276e-02 4.206486418843269348e-02 -6.836893409490585327e-02 3.001702390611171722e-02 2.082359790802001953e-02 -2.410043962299823761e-02 5.533362552523612976e-02 -1.665356103330850601e-03 5.851918831467628479e-02 5.688507109880447388e-02 -4.797989502549171448e-02 -1.372097618877887726e-02 3.475053608417510986e-02 -5.630656704306602478e-02 -7.888314314186573029e-03 2.038259617984294891e-02 -6.098734214901924133e-02 -1.274126861244440079e-02 -5.717545747756958008e-02 -5.206169933080673218e-02 -3.794870525598526001e-02 6.376487016677856445e-02 -6.802429258823394775e-02 -1.549603976309299469e-02 3.254354372620582581e-02 1.119453366845846176e-02 -6.361135840415954590e-02 -3.662546351552009583e-02 -2.901102229952812195e-02 -1.078936830163002014e-02 6.400872021913528442e-02 1.773456670343875885e-02 -3.783852979540824890e-02 6.026716157793998718e-02 3.735139220952987671e-02 5.305427685379981995e-02 -1.537638716399669647e-02 -6.059233471751213074e-02 -5.785263702273368835e-02 3.977264091372489929e-02 -2.423367463052272797e-02 -1.887682266533374786e-02 -4.588828980922698975e-02 -4.268196970224380493e-02 -1.783513464033603668e-02 -2.005210146307945251e-02 -3.438415750861167908e-02 4.428802058100700378e-02 3.043248690664768219e-02 -1.296612527221441269e-02 -6.903631240129470825e-02 6.302633136510848999e-02 6.211835145950317383e-02 -5.303605645895004272e-02 -6.787128001451492310e-02 5.171841382980346680e-02 -3.622929751873016357e-02 -3.310861438512802124e-02 -5.502786859869956970e-02 6.462837569415569305e-03 -4.968328401446342468e-02 3.749699564650654793e-03 -8.942072279751300812e-03 -4.277288913726806641e-02 1.825852692127227783e-02 -1.239262148737907410e-02 2.918082475662231445e-02 3.307349979877471924e-02 -2.983820810914039612e-02 -6.900101900100708008e-02 1.152417529374361038e-02 -6.385931372642517090e-02 8.004490286111831665e-03 1.277612242847681046e-02 -4.752105847001075745e-02 1.218530535697937012e-02 3.098098933696746826e-02 -7.618544157594442368e-03 -1.011586561799049377e-02 4.952279850840568542e-02 1.420042943209409714e-03 3.405053541064262390e-02 -2.568675577640533447e-02 3.990427032113075256e-02 -3.780479019042104483e-04 2.540437737479805946e-03 5.563303083181381226e-02 -1.367603987455368042e-02 6.322565674781799316e-02 2.089340612292289734e-02 -3.654717933386564255e-03 -3.591841086745262146e-02 -6.479508429765701294e-02 4.413104057312011719e-02 6.939545273780822754e-03 1.437498023733496666e-03 -3.158714994788169861e-02 -2.537304069846868515e-03 -2.830663323402404785e-02 -4.413093626499176025e-02 -6.718166917562484741e-02 3.255371004343032837e-02 1.730345934629440308e-02 5.016700923442840576e-02 -1.661160215735435486e-02 1.380398496985435486e-02 2.177112735807895660e-02 -5.643624439835548401e-02 -3.552019596099853516e-02 3.741289675235748291e-02 3.849058970808982849e-02 -2.384754270315170288e-02 -4.746318235993385315e-02 4.981637001037597656e-02 3.019591094925999641e-03 -4.631496220827102661e-02 1.525491289794445038e-02 4.586122557520866394e-02 -5.086677893996238708e-02 4.717879369854927063e-02 -1.815306395292282104e-02 5.598418414592742920e-02 5.197690427303314209e-02 3.004785859957337379e-03 2.512874081730842590e-03 9.935535490512847900e-03 -4.299636185169219971e-02 4.188277944922447205e-02 5.952713638544082642e-02 3.318899124860763550e-02 -1.222539134323596954e-02 -2.273038588464260101e-02 -2.121249586343765259e-02 4.620856139808893204e-03 -5.107408016920089722e-02 -6.034213304519653320e-02 9.723591618239879608e-03 6.901897490024566650e-02 8.282279595732688904e-03 1.778333075344562531e-02 -5.402564257383346558e-02 5.866044759750366211e-02 -6.134268268942832947e-02 3.778988122940063477e-02 -2.505786530673503876e-02 6.182986497879028320e-02 -3.553469851613044739e-02 2.590953605249524117e-03 6.785768270492553711e-02 -6.257644295692443848e-02 4.396884702146053314e-03 -1.201155688613653183e-02 -4.863837361335754395e-02 -3.986923769116401672e-02 1.289170887321233749e-02 6.676101684570312500e-02 -5.551797896623611450e-02 4.096115753054618835e-02 -4.241738840937614441e-02 4.958478361368179321e-02 -6.640621274709701538e-02 6.569296121597290039e-02 -2.374501712620258331e-02 -7.611438632011413574e-03 3.759312257170677185e-02 -7.834468036890029907e-03 1.772382110357284546e-02 8.664881810545921326e-03 6.902194023132324219e-02 2.943458594381809235e-02 -2.056599780917167664e-02 -1.233975496143102646e-02 -6.671970337629318237e-02 -6.960430741310119629e-02 2.787858061492443085e-02 -4.552504420280456543e-02 -3.437021002173423767e-02 6.869071722030639648e-02 4.227070882916450500e-02
6.569931656122207642e-02 -2.914875559508800507e-02 8.765582926571369171e-03 1.884908415377140045e-02 6.704953312873840332e-02 -5.877301446162164211e-04 1.523985713720321655e-02 1.798399351537227631e-02 -5.099967494606971741e-02 2.977996319532394409e-02 -1.877921819686889648e-02 -6.211449950933456421e-02 3.303280333057045937e-03 -4.309999290853738785e-03 -6.418468803167343140e-02 -6.060713157057762146e-02 -1.519374642521142960e-02 6.590747088193893433e-02 -1.698537915945053101e-02 1.606068387627601624e-02 -1.710787042975425720e-02 4.139349982142448425e-02 4.457548260688781738e-02 5.923008546233177185e-02 5.232593044638633728e-02 5.087817087769508362e-02 4.377889260649681091e-02 -2.252905815839767456e-02 -1.949819922447204590e-02 1.149791199713945389e-02 9.239523671567440033e-03 3.778979554772377014e-02 3.911235928535461426e-02 9.749554097652435303e-03 6.497240066528320312e-02 -3.997807577252388000e-02 -6.491945683956146240e-02 -3.167815506458282471e-02 -3.079389408230781555e-02 4.100479558110237122e-02 1.910279691219329834e-02 -6.571663171052932739e-02 -5.575793981552124023e-02 8.476010523736476898e-03 -2.182256989181041718e-02 -6.688821304123848677e-05 2.567057311534881592e-02 -3.470050916075706482e-02 -6.485400348901748657e-02 -6.892912089824676514e-02 1.154261408373713493e-03 6.587307900190353394e-02 -4.942014440894126892e-02 -6.220281869173049927e-02 -4.548524320125579834e-02 2.036889549344778061e-03 -1.251411531120538712e-02 -6.600472331047058105e-02 4.023295640945434570e-02 4.637701809406280518e-02 -3.876695409417152405e-02 1.127473358064889908e-02 2.095351554453372955e-02 1.926914602518081665e-02 6.315666250884532928e-03 -3.845841437578201294e-02 -7.320156786590814590e-03 -5.961207300424575806e-02 6.883823871612548828e-02 -4.314554855227470398e-02 6.556570529937744141e-02 4.134710878133773804e-02 -7.032882422208786011e-02 1.543286349624395370e-02 1.546122133731842041e-02 -4.558241739869117737e-02 -4.874528199434280396e-02 6.327277421951293945e-02 5.818706005811691284e-02 4.348667338490486145e-02 3.635459393262863159e-02 3.141959756612777710e-02 -4.671319946646690369e-02 1.527138054370880127e-02 -1.726279407739639282e-02 -5.015806481242179871e-02 2.935567405074834824e-03 3.284437349066138268e-03 6.564012169837951660e-02 5.701926350593566895e-02 -4.072660207748413086e-02 1.861018501222133636e-02 -3.758288687095046043e-03 -6.519261002540588379e-02 -1.552125066518783569e-02 -5.474867299199104309e-03 3.213582187891006470e-02 -1.174793113023042679e-02 4.503675177693367004e-02 4.466741532087326050e-02 -5.680321156978607178e-02 -2.386212348937988281e-02 -5.947035923600196838e-02 5.954809486865997314e-02 6.122162193059921265e-02 1.525824237614870071e-02 5.509360879659652710e-02 5.594948679208755493e-02 2.536455914378166199e-02 1.853105053305625916e-02 5.900169909000396729e-02 -5.345608294010162354e-02 -2.828787826001644135e-02 4.934336617588996887e-02 2.601834945380687714e-02 5.474908649921417236e-02 -3.497526049613952637e-03 6.810011342167854309e-03 4.921324923634529114e-02 5.509822815656661987e-02 3.599911555647850037e-02 -3.382090106606483459e-02 -6.418523937463760376e-02 -5.694556608796119690e-02 1.305774436332285404e-03 2.126541547477245331e-02 1.588631793856620789e-02 9.532513096928596497e-03 5.722801759839057922e-02 -2.184977754950523376e-02 2.320986241102218628e-02 -5.160347558557987213e-03 -4.868956655263900757e-02 5.697376653552055359e-02 6.290357559919357300e-03 -2.432659827172756195e-02 2.560645155608654022e-02 4.318128898739814758e-02 -5.143466219305992126e-02 -5.592568963766098022e-02 5.075224116444587708e-02 2.838788740336894989e-02 5.255204811692237854e-02 -3.372105211019515991e-02 -3.534676134586334229e-02 -5.658124107867479324e-03 -6.647372990846633911e-02 -1.074937754310667515e-03 4.657499492168426514e-02 -5.030809715390205383e-02 -4.588929191231727600e-02 -8.786491118371486664e-03 1.088249683380126953e-02 -5.912766605615615845e-02 4.517570883035659790e-02 1.930677518248558044e-02 2.682899869978427887e-02 6.963370740413665771e-02 4.970369115471839905e-02 7.803027983754873276e-04 1.507728546857833862e-02 4.789148271083831787e-02 -5.366441607475280762e-02 -3.357189893722534180e-02 2.167376130819320679e-02 4.441210068762302399e-03 -4.394586384296417236e-02 -4.645197186619043350e-03 1.954557932913303375e-02 -5.797673016786575317e-02 4.143030196428298950e-02 -1.079489756375551224e-02 -5.722670257091522217e-02 2.553158253431320190e-02 -6.654968857765197754e-02 -6.235306710004806519e-02 -5.910073965787887573e-02 -3.340107202529907227e-02 -3.359897807240486145e-02 -6.321345921605825424e-03 9.903047466650605202e-04 3.601988777518272400e-02 -1.221578451804816723e-03 -1.069782767444849014e-02 3.840560838580131531e-02 -5.895037204027175903e-02 -5.743915215134620667e-02 -2.568152360618114471e-02 -7.261509541422128677e-03 3.631902113556861877e-02 -5.357359349727630615e-02 4.185727238655090332e-02 1.111725810915231705e-03 -5.315797403454780579e-02 4.568713158369064331e-02 -6.283702701330184937e-02 -6.152847316116094589e-03 4.109131917357444763e-02 3.128705173730850220e-02 3.688944876194000244e-02
1.882631890475749969e-02 6.836183369159698486e-02 -5.879659671336412430e-03 -5.248068273067474365e-02 -1.049979962408542633e-02 -2.861832082271575928e-02 6.521856784820556641e-02 4.416915401816368103e-02 -5.867014825344085693e-02 -4.780618101358413696e-02 5.938952043652534485e-02 -5.488160997629165649e-02 -4.262186586856842041e-02 -2.044837921857833862e-03 -4.119112715125083923e-02 -4.098559916019439697e-02 -5.755458399653434753e-02 -8.643386885523796082e-03 -3.573111072182655334e-02 6.213004142045974731e-02 -1.317436061799526215e-02 2.619428187608718872e-02 -4.388746619224548340e-02 6.450693588703870773e-03 6.949508190155029297e-02 6.875491142272949219e-02 3.271647170186042786e-02 5.487827118486166000e-03 -5.537531524896621704e-02 8.026619325391948223e-04 2.165940403938293457e-02 -3.835982829332351685e-02 -6.771086156368255615e-02 3.192777931690216064e-02 5.195479840040206909e-02 -6.718250364065170288e-02 7.065007835626602173e-02 -1.803790591657161713e-02 8.059167303144931793e-03 -5.956834182143211365e-02 -3.779309615492820740e-02 2.105041965842247009e-02 1.500921510159969330e-02 -4.715639725327491760e-02 -9.008157067000865936e-03 -4.255551472306251526e-02 6.446553021669387817e-02 6.691586971282958984e-02 3.825220093131065369e-02 -3.942746296525001526e-02 -4.915827140212059021e-02 3.540077432990074158e-02 6.354025006294250488e-02 3.194887563586235046e-02 -2.499822061508893967e-03 -6.896842271089553833e-02 -2.941856533288955688e-02 4.083766043186187744e-02 1.589027419686317444e-02 3.512392938137054443e-02 -4.522152617573738098e-02 5.501746386289596558e-02 -4.021890088915824890e-02 -5.438791215419769287e-02 6.142645329236984253e-02 5.847324058413505554e-02 6.564461439847946167e-02 4.428929463028907776e-02 -6.215497106313705444e-02 6.243690475821495056e-02 -2.005691081285476685e-02 -3.378300927579402924e-03 4.602810740470886230e-02 2.410609833896160126e-02 4.483523312956094742e-03 3.772832825779914856e-02 5.528913810849189758e-02 -5.302654579281806946e-02 2.917023003101348877e-02 -3.409600257873535156e-02 -4.229566827416419983e-02 -3.334554657340049744e-02 5.930305272340774536e-02 5.632849037647247314e-02 -5.944984406232833862e-02 -5.453041568398475647e-02 6.219661794602870941e-03 -1.423362875357270241e-03 -4.157560691237449646e-02 -5.579727515578269958e-02 5.681164562702178955e-02 -1.227244827896356583e-02 5.661157146096229553e-02 -6.940675526857376099e-02 -4.427265003323554993e-02 -5.534974392503499985e-03 -7.935702800750732422e-03 2.900097751989960670e-03 2.020547166466712952e-02 -6.861814111471176147e-02 5.530422786250710487e-04 2.886324562132358551e-02 -2.123922575265169144e-03 9.513783734291791916e-04 6.821645796298980713e-02 1.868314482271671295e-02 -5.401113256812095642e-02 5.936567857861518860e-02 -1.041312888264656067e-02 3.672800585627555847e-02 -4.436743259429931641e-02 -3.225507587194442749e-02 3.164271637797355652e-02 1.903385668992996216e-02 -4.127253219485282898e-02 -1.129232533276081085e-02 -5.416365340352058411e-02 -6.313432008028030396e-02 6.098145991563796997e-02 4.503485187888145447e-02 -9.848476387560367584e-03 -5.884015560150146484e-02 5.134718120098114014e-02 1.422761008143424988e-02 -1.348539534956216812e-02 6.149877980351448059e-02 2.669998630881309509e-02 -4.562591388821601868e-02 -4.116123542189598083e-02 2.911974675953388214e-02 4.704764578491449356e-03 9.322070516645908356e-03 -5.664726253598928452e-03 5.634125694632530212e-02 2.500832080841064453e-03 6.121670454740524292e-02 -4.523266106843948364e-03 4.025326669216156006e-02 6.640023086220026016e-03 1.988911814987659454e-02 -7.140178233385086060e-03 -7.252409309148788452e-02 6.094314903020858765e-02 1.934664323925971985e-02 -4.046260192990303040e-02 -6.666228920221328735e-02 -2.058324404060840607e-02 2.377301920205354691e-03 -6.871414184570312500e-02 -1.293853297829627991e-02 1.250613387674093246e-02 4.743222147226333618e-02 -1.292673684656620026e-02 5.977036431431770325e-02 5.240418948233127594e-03 6.865820288658142090e-02 5.828287079930305481e-02 -6.378182768821716309e-02 4.355719313025474548e-02 1.633763685822486877e-02 -2.328504435718059540e-02 4.449854791164398193e-02 -6.570104043930768967e-03 4.602646082639694214e-02 9.746667928993701935e-03 -2.483297325670719147e-02 -5.737619847059249878e-02 6.917918473482131958e-02 5.870576202869415283e-02 -8.700755424797534943e-03 4.793517291545867920e-02 6.774060428142547607e-02 1.391812972724437714e-02 2.863831818103790283e-03 3.320163523312658072e-04 5.379684641957283020e-02 -7.314909249544143677e-02 -5.471764504909515381e-02 4.530003294348716736e-02 -1.318333577364683151e-02 -6.830168515443801880e-02 -6.577211618423461914e-02 3.299463912844657898e-02 7.009609788656234741e-02 -3.149108961224555969e-02 -5.600156635046005249e-02 -2.477547898888587952e-02 -5.892641097307205200e-02 3.014904633164405823e-02 -4.301214218139648438e-02 5.014071986079216003e-02 2.236638218164443970e-03 3.705101460218429565e-02 6.405774503946304321e-02 2.511647995561361313e-03 -4.409508034586906433e-02 -4.971059411764144897e-02 2.411549910902976990e-02 -1.719591580331325531e-02 -5.331431515514850616e-03
-2.577924542129039764e-02 2.992495335638523102e-02 6.659421324729919434e-02 1.182315498590469360e-02 2.665340900421142578e-02 2.844652533531188965e-02 -2.987731061875820160e-02 -1.259993109852075577e-02 4.377343133091926575e-02 5.672339349985122681e-02 -2.697724616155028343e-03 3.809101507067680359e-02 1.591834821738302708e-03 -9.662408381700515747e-03 2.485458739101886749e-02 -6.759724766016006470e-02 6.666965782642364502e-02 -4.256834089756011963e-02 -3.324154764413833618e-02 -6.602334231138229370e-02 1.533664390444755554e-02 -3.445288538932800293e-02 4.911759495735168457e-02 -2.923319675028324127e-02 -1.332953944802284241e-02 -1.274270005524158478e-02 -6.980803608894348145e-02 -3.351093456149101257e-02 5.162974819540977478e-02 3.372540324926376343e-02 -5.022582411766052246e-02 3.531360626220703125e-02 2.479807101190090179e-02 4.215097427368164062e-02 -5.130163952708244324e-02 -5.451339110732078552e-02 3.140295296907424927e-02 -2.874349243938922882e-02 5.897628515958786011e-02 -1.324443425983190536e-02 1.135201938450336456e-02 6.633160263299942017e-02 2.439070492982864380e-02 5.700350925326347351e-02 8.679428137838840485e-03 -2.729120105504989624e-02 -4.417554661631584167e-02 -1.639401540160179138e-02 -1.048148889094591141e-02 -6.170336622744798660e-03 2.393935061991214752e-02 -1.487339660525321960e-02 -6.197431311011314392e-02 -3.470389405265450478e-03 -4.999433830380439758e-02 -2.373784594237804413e-02 8.363116532564163208e-03 7.775131613016128540e-03 -5.294553190469741821e-02 1.911943592131137848e-02 1.167043857276439667e-02 1.180652249604463577e-02 -1.281734276562929153e-02 -5.518127977848052979e-02 6.743572652339935303e-02 -3.730061650276184082e-02 -5.937828868627548218e-02 4.943154752254486084e-03 -1.845812797546386719e-02 -6.158721446990966797e-02 6.723918020725250244e-02 4.108800366520881653e-02 2.841353416442871094e-03 3.117680549621582031e-02 1.602394878864288330e-02 5.517433211207389832e-02 -7.055829465389251709e-02 -5.513818934559822083e-02 -4.625989124178886414e-02 -8.412455208599567413e-03 5.010098591446876526e-02 5.851192772388458252e-02 -6.744618713855743408e-02 -1.471493858844041824e-02 -6.126407161355018616e-02 -6.117667537182569504e-03 -4.998101294040679932e-02 -5.736015364527702332e-02 -6.681767851114273071e-02 3.401702642440795898e-02 -4.259885102510452271e-02 3.571309382095932961e-03 5.353859066963195801e-02 3.456251695752143860e-02 -4.726106300950050354e-02 2.084889449179172516e-03 -6.272704899311065674e-02 6.718765012919902802e-03 8.663518819957971573e-04 -4.758167639374732971e-02 -3.417888283729553223e-02 -2.969690226018428802e-02 -5.011535435914993286e-02 -5.921027064323425293e-02 -2.443160116672515869e-02 -3.484263643622398376e-02 -2.751625515520572662e-02 -3.121201880276203156e-02 -1.967017538845539093e-02 5.561999976634979248e-03 6.989903748035430908e-02 -5.043867975473403931e-02 -5.144430696964263916e-02 -5.896449089050292969e-03 1.981331780552864075e-02 -4.404099658131599426e-02 1.038313470780849457e-02 6.190381199121475220e-02 4.810028150677680969e-02 -4.709275811910629272e-02 -6.168325617909431458e-02 -5.855501629412174225e-03 5.579870194196701050e-02 -4.757358133792877197e-02 5.364559218287467957e-02 4.846214316785335541e-03 -1.354798674583435059e-02 3.991856798529624939e-02 -4.443524032831192017e-02 3.569234535098075867e-02 6.490374449640512466e-03 4.804242774844169617e-02 3.270205110311508179e-02 2.129209041595458984e-02 -6.426483392715454102e-02 -6.278763711452484131e-02 -1.176666701212525368e-03 1.779482513666152954e-02 -4.819940403103828430e-02 -5.698312073945999146e-02 4.721481353044509888e-03 5.027627944946289062e-02 2.858963329344987869e-03 -2.971382811665534973e-02 1.136415917426347733e-02 7.701602298766374588e-03 3.035402484238147736e-02 -2.695562876760959625e-02 3.854098170995712280e-02 -2.390749752521514893e-02 7.061012834310531616e-02 3.683187067508697510e-02 5.852800980210304260e-02 3.127295151352882385e-02 5.868544802069664001e-02 1.583505421876907349e-02 6.581254303455352783e-02 -3.970003873109817505e-02 -2.245728485286235809e-02 -5.415881425142288208e-02 -4.566008597612380981e-02 1.857969909906387329e-02 -6.679341197013854980e-02 4.658275097608566284e-02 -4.390071704983711243e-02 6.560717523097991943e-02 -4.372569546103477478e-02 3.521869424730539322e-03 -1.212146412581205368e-02 -5.486993491649627686e-02 5.478064343333244324e-02 7.047636061906814575e-02 -1.676446199417114258e-02 3.497425094246864319e-02 1.536082755774259567e-02 1.429218053817749023e-02 -1.213489938527345657e-02 3.263019025325775146e-02 -5.208817496895790100e-02 -5.211965739727020264e-02 -4.865895956754684448e-02 -2.106165513396263123e-02 -4.098420217633247375e-02 5.103358998894691467e-02 -7.414436899125576019e-03 -4.500495642423629761e-02 2.558238804340362549e-03 1.706997677683830261e-02 -5.322360247373580933e-02 -6.610870361328125000e-02 1.046693418174982071e-02 -6.024644523859024048e-02 4.134172201156616211e-02 -2.878871932625770569e-02 -2.241107448935508728e-02 7.014580070972442627e-02 2.270743250846862793e-02 7.859819568693637848e-03 1.944189891219139099e-02 1.834452524781227112e-02
-8.226431906223297119e-03 -5.698841810226440430e-02 -6.234914064407348633e-02 -5.047161132097244263e-02 -2.660829201340675354e-02 5.131676048040390015e-02 4.853381961584091187e-02 2.802477031946182251e-02 2.590233832597732544e-02 -3.047081455588340759e-02 6.172195822000503540e-02 4.886897653341293335e-02 -1.685896888375282288e-02 3.860025107860565186e-02 1.434186846017837524e-02 -5.910922959446907043e-02 5.137024074792861938e-02 -3.173087909817695618e-02 4.528889805078506470e-02 3.874024003744125366e-02 1.723905652761459351e-02 -6.392069160938262939e-02 5.207265168428421021e-02 -4.769813269376754761e-02 -3.307472541928291321e-02 6.505730003118515015e-02 -1.734312623739242554e-02 2.793782949447631836e-02 -1.073964312672615051e-02 2.355158329010009766e-02 -1.228541880846023560e-02 2.931220084428787231e-02 1.968390494585037231e-02 4.658879339694976807e-02 -2.726423367857933044e-02 1.823326945304870605e-02 -6.263891607522964478e-02 -4.786850512027740479e-02 -6.015506386756896973e-02 -2.489093691110610962e-02 7.076859474182128906e-04 -3.339939936995506287e-02 6.236957758665084839e-02 6.435446441173553467e-03 -1.382065936923027039e-02 -2.567689120769500732e-02 3.616343438625335693e-02 -2.458787336945533752e-02 -4.655885696411132812e-02 -5.049215257167816162e-02 -1.974098384380340576e-03 -6.292966008186340332e-02 -5.774448066949844360e-02 5.239894241094589233e-02 -6.148595735430717468e-02 1.275080442428588867e-02 3.393810987472534180e-02 5.795476585626602173e-02 9.365178644657135010e-03 -5.504878610372543335e-02 -1.784732937812805176e-02 1.912890374660491943e-02 4.088879376649856567e-02 -5.489180237054824829e-02 -4.168038815259933472e-02 1.047661900520324707e-02 -2.239360660314559937e-02 -5.568721890449523926e-02 -1.726523786783218384e-02 -3.677899390459060669e-02 2.251658588647842407e-02 1.620682328939437866e-02 -5.834548547863960266e-02 -6.508535891771316528e-02 -3.765783086419105530e-02 6.632185727357864380e-02 5.250243097543716431e-02 -1.864553242921829224e-02 4.337833076715469360e-02 -1.930634304881095886e-02 -6.224116310477256775e-02 -1.294081285595893860e-02 2.235297858715057373e-02 -4.863838478922843933e-02 -1.517243683338165283e-02 -1.394627615809440613e-02 -6.255388259887695312e-02 3.109829127788543701e-02 6.893891841173171997e-02 -4.711453989148139954e-02 2.054343372583389282e-02 1.563410460948944092e-02 3.781440854072570801e-02 -4.661982879042625427e-02 8.345782756805419922e-03 2.354753762483596802e-02 -3.154555335640907288e-02 -5.676373839378356934e-03 -1.140692830085754395e-02 3.487713634967803955e-03 5.926775187253952026e-02 -1.858294382691383362e-02 2.795189619064331055e-03 -3.955875337123870850e-02 -2.162631601095199585e-02 6.019651144742965698e-02 4.261136054992675781e-03 -3.357344865798950195e-02 -1.883348077535629272e-02 -5.892387777566909790e-02 -4.608685523271560669e-02 1.423173397779464722e-02 1.739948242902755737e-02 -3.692589700222015381e-03 -3.053752705454826355e-02 4.256061464548110962e-02 -3.560587018728256226e-02 2.453581243753433228e-02 1.601692289113998413e-02 5.546531826257705688e-02 -8.034110069274902344e-03 6.322307139635086060e-02 1.549497246742248535e-04 9.723715484142303467e-03 -4.153586924076080322e-03 -6.694166362285614014e-02 -9.701464325189590454e-03 -2.290216088294982910e-02 -2.748746797442436218e-02 -4.469551146030426025e-02 -5.615860596299171448e-02 3.492580354213714600e-02 -1.926081627607345581e-02 -4.181335121393203735e-02 4.907717555761337280e-02 6.937619298696517944e-02 1.183003932237625122e-02 5.533681064844131470e-02 -1.804785430431365967e-02 -3.880643472075462341e-02 2.934251725673675537e-02 -2.250883728265762329e-02 -4.897137731313705444e-02 -6.810390949249267578e-02 5.028970539569854736e-03 -1.850277930498123169e-02 5.433847755193710327e-02 -3.732413798570632935e-02 4.930429905652999878e-02 -3.283110633492469788e-02 6.467286497354507446e-02 -3.825388848781585693e-02 5.147861689329147339e-02 -6.241624057292938232e-02 5.799911171197891235e-02 -3.040447831153869629e-02 9.646736085414886475e-03 -4.796877130866050720e-02 -4.052685201168060303e-02 -5.289054661989212036e-02 -4.933261126279830933e-02 3.204680979251861572e-02 -6.381427496671676636e-02 2.628898620605468750e-02 -3.954571485519409180e-02 2.460030466318130493e-02 3.444211184978485107e-02 1.164966076612472534e-02 4.143960028886795044e-02 1.669223606586456299e-02 6.704034656286239624e-02 -6.103619188070297241e-02 2.458989620208740234e-04 -3.378773853182792664e-02 -6.361238658428192139e-03 4.710070788860321045e-03 -1.427621021866798401e-02 -2.359637618064880371e-02 -5.905980616807937622e-02 2.297023683786392212e-02 -9.844619780778884888e-03 -7.270902395248413086e-03 9.270474314689636230e-03 -5.617605149745941162e-02 2.197176963090896606e-02 -4.406416043639183044e-02 2.684201300144195557e-02 -6.927227973937988281e-02 -5.266760662198066711e-02 3.246039152145385742e-02 4.575496166944503784e-02 -5.744672194123268127e-02 -6.465642899274826050e-02 -6.125453859567642212e-02 2.360797673463821411e-02 -5.743441730737686157e-02 -7.235392928123474121e-03 4.121954739093780518e-02 1.054501533508300781e-02 -2.664345875382423401e-02
-2.290637791156768799e-02 -7.095035910606384277e-02 -9.255341137759387493e-04 5.594784393906593323e-02 1.069097872823476791e-02 -5.668426305055618286e-02 1.741940341889858246e-02 -4.705416038632392883e-02 -1.528195105493068695e-02 -2.737337909638881683e-02 -2.730394154787063599e-02 3.453653305768966675e-02 -5.743054300546646118e-02 1.885696314275264740e-02 2.962612174451351166e-02 -5.577549338340759277e-02 1.319016329944133759e-02 2.010202500969171524e-03 -1.800658367574214935e-02 6.405033171176910400e-02 3.018302097916603088e-02 4.635819047689437866e-02 6.071965023875236511e-02 2.411519177258014679e-02 4.270881041884422302e-02 -2.083344385027885437e-02 -4.042322188615798950e-02 -1.545601803809404373e-02 -5.662482231855392456e-02 3.236535936594009399e-02 5.662289448082447052e-03 -6.462979316711425781e-02 6.253895163536071777e-02 4.730303585529327393e-02 -2.270079590380191803e-02 -4.943588376045227051e-02 4.275197908282279968e-02 -5.758550018072128296e-02 5.000306665897369385e-02 -1.937393471598625183e-02 -1.807478629052639008e-02 5.325461179018020630e-02 -4.577274993062019348e-02 -1.530532352626323700e-02 4.977930337190628052e-02 3.600777685642242432e-02 -2.703813277184963226e-02 -6.069474667310714722e-02 2.669854648411273956e-02 -1.432769093662500381e-02 -3.223207220435142517e-02 2.179231867194175720e-02 1.982972584664821625e-02 -3.102823160588741302e-02 -1.049554906785488129e-02 5.131955817341804504e-02 -6.192261725664138794e-02 -8.423789404332637787e-03 3.453202173113822937e-02 1.392817776650190353e-02 -9.624373167753219604e-03 6.393542885780334473e-02 6.150491535663604736e-02 8.802886120975017548e-03 3.803335130214691162e-03 -7.118143141269683838e-02 4.452614858746528625e-02 -2.953437343239784241e-02 -6.195778260007500648e-04 4.975578933954238892e-02 -1.626812107861042023e-02 5.253411829471588135e-02 2.197334915399551392e-02 6.096722185611724854e-02 -4.361990839242935181e-02 2.607140131294727325e-02 4.714240506291389465e-02 -8.760450407862663269e-03 1.732407510280609131e-02 -4.442803189158439636e-02 -1.510371360927820206e-02 -6.532788276672363281e-02 -3.490277379751205444e-02 4.690219461917877197e-02 -2.972124144434928894e-02 -5.154792219400405884e-02 -1.399623602628707886e-02 4.548532888293266296e-02 4.464005585759878159e-03 1.594282314181327820e-02 -3.246477339416742325e-03 -6.119422987103462219e-02 -7.125179469585418701e-02 4.982558637857437134e-02 1.248306315392255783e-02 -4.130272567272186279e-02 -3.137516602873802185e-02 -1.762953400611877441e-02 5.784736573696136475e-02 -4.501968622207641602e-02 1.191795710474252701e-02 -8.585116825997829437e-03 -1.589843258261680603e-02 -5.991080030798912048e-02 -6.692004948854446411e-02 2.539067342877388000e-02 -5.572282150387763977e-02 2.125347033143043518e-02 -4.439408425241708755e-03 3.434801101684570312e-02 3.366395458579063416e-02 -7.046515494585037231e-02 -5.224877968430519104e-02 -7.029879838228225708e-02 4.063763841986656189e-02 5.362843722105026245e-02 -6.156459823250770569e-02 5.945385247468948364e-02 -3.174052387475967407e-02 -6.407243013381958008e-02 4.140746593475341797e-02 4.271331056952476501e-02 -6.330319214612245560e-03 6.025467067956924438e-02 -5.332003533840179443e-02 -5.148587375879287720e-02 -3.371473029255867004e-02 3.409236669540405273e-02 3.028909116983413696e-02 -5.658449232578277588e-02 1.038035191595554352e-02 -6.137789040803909302e-02 -6.207140907645225525e-02 -4.104303568601608276e-02 -2.892123721539974213e-02 5.246352404356002808e-02 2.759007178246974945e-02 3.822070360183715820e-02 -2.319294586777687073e-02 1.001367159187793732e-02 -4.393405094742774963e-02 1.221475005149841309e-02 -1.115377340465784073e-02 1.597862131893634796e-02 -3.314878791570663452e-02 2.211858518421649933e-02 6.806647032499313354e-02 2.522029448300600052e-03 4.455725103616714478e-02 -2.814530767500400543e-02 -6.105504184961318970e-02 -6.166750937700271606e-02 6.130709126591682434e-02 -1.107545476406812668e-02 -4.731801897287368774e-02 1.456650160253047943e-02 -5.550034344196319580e-02 2.521305344998836517e-02 -8.592304773628711700e-03 3.781030327081680298e-02 -4.254795610904693604e-02 6.823888048529624939e-03 1.626675017178058624e-02 2.670599706470966339e-02 -5.036753788590431213e-02 4.654571413993835449e-02 4.494914412498474121e-02 -7.868676446378231049e-03 1.997764036059379578e-02 -3.521583974361419678e-02 -9.903277270495891571e-03 4.760319367051124573e-02 2.795459516346454620e-02 3.928776457905769348e-02 6.149086728692054749e-02 3.929119929671287537e-02 5.114852264523506165e-02 6.721607595682144165e-02 -1.704008318483829498e-02 -4.557584971189498901e-02 4.105376824736595154e-02 2.270041033625602722e-02 2.203877270221710205e-02 3.886048123240470886e-02 -6.058878824114799500e-02 -1.182579435408115387e-02 3.574037924408912659e-02 5.834155157208442688e-02 -6.455697584897279739e-03 -3.014269843697547913e-02 2.502327598631381989e-02 3.577418997883796692e-02 -4.309374839067459106e-02 2.276742452522739768e-04 -3.453133255243301392e-02 -2.125912345945835114e-02 -3.342323005199432373e-02 3.229304775595664978e-02 -1.093522552400827408e-02 5.904547870159149170e-02
-5.146618187427520752e-02 7.114634662866592407e-02 -2.422739006578922272e-02 -4.674943536520004272e-02 3.595327585935592651e-02 1.018682960420846939e-02 2.333042025566101074e-02 -4.304346814751625061e-02 -4.032877832651138306e-02 1.977064087986946106e-02 4.189003258943557739e-03 4.456115514039993286e-02 4.958244040608406067e-02 4.310557246208190918e-02 -3.180578351020812988e-02 -4.424268752336502075e-02 -1.279632747173309326e-02 -3.712416067719459534e-02 -2.515706419944763184e-02 -1.997661590576171875e-02 -5.547776818275451660e-03 -1.135351601988077164e-02 3.596851974725723267e-02 4.569743294268846512e-03 6.837901473045349121e-02 1.229260396212339401e-02 4.290864989161491394e-02 2.012456022202968597e-02 5.447282269597053528e-02 -1.662595011293888092e-02 -1.087039336562156677e-02 -3.502989560365676880e-02 3.526261821389198303e-02 4.462357982993125916e-02 -1.037950348109006882e-02 -2.568428777158260345e-02 2.564544230699539185e-02 -1.214211457408964634e-03 2.945645153522491455e-02 -3.988891839981079102e-02 -1.819067262113094330e-02 2.613868564367294312e-02 5.783485621213912964e-02 8.429013192653656006e-03 -1.438044104725122452e-02 -2.061316184699535370e-02 -4.838962107896804810e-02 4.711246490478515625e-02 3.967451676726341248e-02 4.653451219201087952e-02 5.754869431257247925e-02 6.445319205522537231e-02 3.102413192391395569e-02 -7.820184109732508659e-04 2.695557288825511932e-02 4.796169698238372803e-02 -3.635105490684509277e-02 1.479296293109655380e-02 -5.199809744954109192e-02 -6.670022848993539810e-04 -5.773611739277839661e-02 -4.370309785008430481e-02 4.873976111412048340e-02 -1.347710005939006805e-02 -4.162936285138130188e-02 -2.774389646947383881e-02 -4.784363880753517151e-02 -2.977468818426132202e-02 -2.393207745626568794e-03 -1.859414391219615936e-02 2.333923242986202240e-02 -6.614889949560165405e-02 -2.418202906847000122e-02 -2.225649310275912285e-03 5.036972090601921082e-02 -1.723328232765197754e-02 2.471569925546646118e-02 3.698340058326721191e-02 5.802077800035476685e-02 -3.006123751401901245e-02 4.541961848735809326e-02 6.699197739362716675e-02 -3.859005123376846313e-02 7.650207728147506714e-02 1.826715096831321716e-02 -6.279259920120239258e-02 8.130424469709396362e-02 4.735255241394042969e-02 -2.257453463971614838e-02 -5.761594325304031372e-02 5.985125526785850525e-02 -3.832191461697220802e-03 -5.915561690926551819e-03 -2.684490755200386047e-02 3.076888807117938995e-02 2.682744711637496948e-02 4.888967052102088928e-02 5.678739026188850403e-02 -2.427650988101959229e-02 -5.230915918946266174e-02 8.527238853275775909e-03 7.628527469933032990e-03 -6.648809183388948441e-03 -6.982261687517166138e-02 -2.325599081814289093e-02 -2.165255323052406311e-02 1.712092012166976929e-02 -3.346620500087738037e-02 1.824631169438362122e-02 5.459878221154212952e-02 -3.675121441483497620e-02 5.408101715147495270e-03 2.196020260453224182e-02 1.545343361794948578e-02 2.378930151462554932e-02 2.031575143337249756e-02 -1.595243252813816071e-02 3.440659120678901672e-02 2.086056955158710480e-02 -1.108013000339269638e-02 6.063675391487777233e-04 5.261033773422241211e-02 4.736242815852165222e-02 5.166627839207649231e-02 -1.449450571089982986e-02 4.243772849440574646e-02 -3.120541386306285858e-02 6.183687597513198853e-02 1.643837988376617432e-02 -1.168073806911706924e-02 -6.626194715499877930e-02 9.678555652499198914e-03 2.754149772226810455e-02 -2.497640624642372131e-02 -8.828371763229370117e-03 -3.629081323742866516e-02 -4.943893104791641235e-02 3.584978636354207993e-03 4.367844201624393463e-03 -2.783834375441074371e-02 4.559511318802833557e-02 3.427150472998619080e-02 6.614473462104797363e-02 -4.220116138458251953e-02 -1.215907745063304901e-02 3.704578150063753128e-03 6.408695131540298462e-03 3.755421936511993408e-02 2.437970414757728577e-02 -1.767504960298538208e-02 5.745918303728103638e-02 5.910832807421684265e-02 -1.037465408444404602e-02 2.116364985704421997e-02 -5.583831667900085449e-02 -3.467508649919182062e-04 -1.024975068867206573e-02 -1.939461566507816315e-02 -5.677952617406845093e-02 3.803006187081336975e-02 -7.000856101512908936e-02 -6.074987351894378662e-02 1.564138941466808319e-02 2.030861005187034607e-02 -7.674998044967651367e-02 5.623513460159301758e-02 -5.480207875370979309e-02 4.486342892050743103e-03 1.429670024663209915e-02 -6.585701834410429001e-03 -4.610566422343254089e-03 -3.706324473023414612e-02 -5.823977291584014893e-02 -5.727678071707487106e-03 -2.096582204103469849e-02 6.702803820371627808e-02 7.092710584402084351e-02 4.139490425586700439e-02 -6.383870542049407959e-02 4.064523149281740189e-03 2.262111054733395576e-03 -6.711650639772415161e-02 1.190691068768501282e-02 -4.686415567994117737e-02 2.573412843048572540e-02 3.281154483556747437e-02 6.103395298123359680e-02 8.467609062790870667e-03 -1.245982013642787933e-02 -2.425282821059226990e-02 5.936793982982635498e-02 4.568018391728401184e-02 1.342621538788080215e-02 -1.087764557451009750e-02 2.677365764975547791e-02 1.980040967464447021e-02 5.666666477918624878e-02 2.172044105827808380e-02 -6.777431070804595947e-02 5.409322306513786316e-02
-4.905210435390472412e-02 -4.468144848942756653e-02 -4.976759478449821472e-02 3.287300840020179749e-02 1.034089364111423492e-02 5.753399059176445007e-02 5.692609399557113647e-02 1.449467334896326065e-02 3.985142707824707031e-02 -5.433246865868568420e-02 2.125299768522381783e-03 5.019601061940193176e-02 -1.927804760634899139e-02 -5.727300047874450684e-02 -8.131323265843093395e-04 1.176469400525093079e-02 -2.683782763779163361e-02 -5.462621897459030151e-02 1.584721915423870087e-02 -4.079465195536613464e-02 -6.001679971814155579e-02 4.339987039566040039e-02 7.789445575326681137e-03 -5.769643932580947876e-02 -6.826710700988769531e-02 1.026085857301950455e-02 1.206042710691690445e-02 -6.841953098773956299e-02 6.266007572412490845e-02 1.951182447373867035e-02 -7.814575219526886940e-04 -3.921155631542205811e-02 6.767775118350982666e-02 6.087637320160865784e-02 -5.766355618834495544e-02 1.563906669616699219e-02 3.838756680488586426e-02 -4.978571087121963501e-02 5.355054512619972229e-02 4.555846005678176880e-02 3.935120627284049988e-02 6.462093442678451538e-02 5.603309348225593567e-02 -4.029118642210960388e-02 5.553422123193740845e-02 7.572992704808712006e-03 -6.260332465171813965e-02 6.705487519502639771e-02 -3.206470608711242676e-02 4.681162536144256592e-02 -1.965963467955589294e-02 5.636100098490715027e-02 4.541648179292678833e-02 6.937741488218307495e-02 -1.963039487600326538e-02 5.147595424205064774e-03 -3.919982910156250000e-02 -2.304141223430633545e-02 -9.121465496718883514e-03 -5.508562177419662476e-02 3.254207968711853027e-02 3.327209502458572388e-02 -5.624668672680854797e-02 -6.791617721319198608e-02 2.098852209746837616e-02 -6.184841692447662354e-02 5.218020454049110413e-02 -5.881172139197587967e-03 -1.068783644586801529e-02 6.451225280761718750e-02 -4.073558002710342407e-02 -1.195217482745647430e-02 -2.309051901102066040e-02 5.548838060349225998e-03 -5.859839171171188354e-02 5.045262631028890610e-03 -5.186580866575241089e-02 5.745377857238054276e-03 9.942922741174697876e-03 -5.519690737128257751e-02 5.551330745220184326e-02 1.009886711835861206e-02 -1.740305870771408081e-02 -2.178492769598960876e-02 3.603124991059303284e-02 1.057764887809753418e-02 -1.540953479707241058e-02 -2.154256217181682587e-03 -6.708914041519165039e-02 -3.196857869625091553e-02 -5.748755112290382385e-02 -5.877194181084632874e-02 1.271013449877500534e-02 -1.416100771166384220e-03 4.395944997668266296e-02 -4.995641857385635376e-02 -4.269787669181823730e-02 -8.735672570765018463e-03 -4.072341695427894592e-02 -3.200345113873481750e-02 1.058845128864049911e-02 -6.723275035619735718e-02 -1.241449918597936630e-02 1.144198467954993248e-04 -1.563879474997520447e-02 -2.278808690607547760e-02 3.992262855172157288e-02 -2.977401949465274811e-02 -6.723082810640335083e-02 -6.241735536605119705e-03 -4.287478700280189514e-02 5.456982180476188660e-02 6.166969984769821167e-02 -2.600191161036491394e-02 -6.406401097774505615e-02 6.727714836597442627e-02 -5.222325399518013000e-02 3.534911200404167175e-02 3.296829387545585632e-02 -5.869649723172187805e-02 4.745598137378692627e-02 -1.222157943993806839e-02 6.140351668000221252e-02 -3.964398987591266632e-03 -4.347857087850570679e-02 5.157411564141511917e-03 5.428768694400787354e-02 -1.203995780088007450e-03 -4.582082387059926987e-03 -1.858094520866870880e-02 -3.038713335990905762e-02 -3.175663203001022339e-02 8.539566770195960999e-03 -5.007536336779594421e-02 -2.049770578742027283e-02 -3.375852853059768677e-02 5.889764428138732910e-02 -1.518758293241262436e-02 -5.976687371730804443e-02 2.393672242760658264e-02 -6.491959840059280396e-02 -3.919790312647819519e-02 -4.193024709820747375e-02 1.849729940295219421e-02 2.697032690048217773e-02 -7.025306671857833862e-02 1.390702929347753525e-02 -1.924920268356800079e-02 4.542130604386329651e-02 -6.516942381858825684e-02 4.138472676277160645e-02 2.496456913650035858e-02 -4.328306764364242554e-02 -1.826245710253715515e-02 2.367283403873443604e-02 3.365126997232437134e-02 4.932824522256851196e-02 -3.854754567146301270e-02 4.241426661610603333e-02 3.369257971644401550e-02 -1.815287396311759949e-03 -3.832877427339553833e-02 3.038799203932285309e-02 -4.121180251240730286e-02 1.651228778064250946e-02 3.842852637171745300e-02 4.088891297578811646e-02 -1.702096313238143921e-02 1.079740840941667557e-02 3.564511239528656006e-02 -3.191710449755191803e-03 -1.533581526018679142e-03 3.977513406425714493e-03 6.536429375410079956e-02 -4.378996416926383972e-02 -3.992211539298295975e-03 3.033644333481788635e-02 -4.736429080367088318e-02 -2.751193195581436157e-02 -4.974228143692016602e-02 4.612347111105918884e-02 3.250869736075401306e-02 5.658268928527832031e-02 6.698074191808700562e-02 -1.429104059934616089e-02 3.476060181856155396e-02 6.568706035614013672e-02 4.496446251869201660e-02 1.420767139643430710e-02 -4.147549346089363098e-02 -2.595276758074760437e-02 5.023318342864513397e-03 3.495075972750782967e-03 -3.606821596622467041e-02 1.040880102664232254e-02 5.057164281606674194e-02 3.470760956406593323e-02 -2.686022408306598663e-02 -5.579020828008651733e-02 4.085504449903964996e-03
1.836207509040832520e-02 -1.882348768413066864e-02 4.367549344897270203e-02 2.488784864544868469e-02 1.024838462471961975e-01 1.578152924776077271e-02 8.487503975629806519e-02 -1.005407888442277908e-02 -4.595409333705902100e-02 -9.374813176691532135e-03 5.024474486708641052e-02 2.034153975546360016e-02 -4.082000628113746643e-02 -4.352431744337081909e-02 -3.308494016528129578e-02 2.566262520849704742e-02 6.766273826360702515e-02 3.330022096633911133e-02 -3.116742335259914398e-02 -1.176321180537343025e-03 -6.483468413352966309e-02 8.535894751548767090e-02 -7.277065515518188477e-02 1.851566880941390991e-02 -4.790155589580535889e-02 6.691487133502960205e-02 4.690329357981681824e-02 7.496927678585052490e-02 4.572366178035736084e-02 -8.330613374710083008e-03 2.055887319147586823e-02 -2.491528913378715515e-02 -5.852928757667541504e-02 -2.965940348803997040e-02 -1.770114712417125702e-02 1.276419381611049175e-03 -2.754155918955802917e-02 -1.706949621438980103e-02 -4.717814177274703979e-02 -2.736486122012138367e-02 -4.866961762309074402e-02 -5.019145458936691284e-02 -4.669125378131866455e-02 -5.158392712473869324e-02 7.878337055444717407e-03 1.526761683635413647e-03 1.631285436451435089e-02 -4.318970441818237305e-02 1.628716476261615753e-02 -1.270725578069686890e-02 4.989499598741531372e-02 5.268531292676925659e-02 -4.106955975294113159e-02 -4.341769590973854065e-02 -4.310057684779167175e-02 -2.044603228569030762e-02 -3.167221089825034142e-03 4.330943897366523743e-02 3.170134499669075012e-02 1.123237833380699158e-01 2.189252898097038269e-02 2.136854827404022217e-02 9.554219245910644531e-02 1.289194077253341675e-02 6.763075292110443115e-02 8.167828433215618134e-03 -3.349338471889495850e-02 -4.777999222278594971e-02 -1.786888204514980316e-02 5.430315807461738586e-02 -8.862473070621490479e-03 5.116742476820945740e-02 -3.243512660264968872e-02 2.785300463438034058e-02 1.701094210147857666e-02 -5.176251009106636047e-02 -6.975536793470382690e-02 4.323284141719341278e-03 5.785093829035758972e-02 2.174975350499153137e-02 8.045234531164169312e-02 7.470177859067916870e-02 4.627798497676849365e-02 -2.326087839901447296e-02 -5.763911455869674683e-02 -1.643970236182212830e-02 2.717050537467002869e-02 -1.403862051665782928e-02 -5.540144070982933044e-02 -1.209062803536653519e-02 -4.594105482101440430e-02 -7.303074933588504791e-03 2.404921222478151321e-03 -2.921505086123943329e-02 -4.863222315907478333e-02 -2.223862707614898682e-02 -4.647096619009971619e-02 6.042079627513885498e-02 -1.716593280434608459e-02 3.850641893222928047e-03 -2.552402205765247345e-03 2.744546532630920410e-02 6.230867654085159302e-02 4.010390862822532654e-02 1.403263956308364868e-02 -3.635798767209053040e-02 -6.671815179288387299e-03 1.439407467842102051e-02 -1.135678030550479889e-02 4.229430481791496277e-02 -3.777446225285530090e-02 6.077723950147628784e-02 5.798602104187011719e-02 6.552393734455108643e-02 5.895036086440086365e-02 -9.824786335229873657e-03 6.523177772760391235e-02 1.847917400300502777e-02 -1.635483466088771820e-02 -3.631995618343353271e-02 2.408483251929283142e-02 -3.206724673509597778e-02 -2.110273018479347229e-02 -3.980820998549461365e-02 -6.640330702066421509e-02 -6.233038380742073059e-02 -2.779212407767772675e-02 -1.941506005823612213e-02 4.022464156150817871e-02 7.659609615802764893e-02 -5.001240223646163940e-02 3.727499395608901978e-02 -6.863727420568466187e-02 -5.909788981080055237e-02 2.921150252223014832e-02 1.774669624865055084e-02 -1.107193436473608017e-02 -5.677390843629837036e-02 -4.056971985846757889e-03 4.685962572693824768e-02 6.414033472537994385e-02 3.924864158034324646e-02 2.836091257631778717e-02 -3.318645432591438293e-02 7.006447017192840576e-02 -1.137807313352823257e-02 2.217532368376851082e-03 2.990839257836341858e-02 -3.439855203032493591e-02 3.332207724452018738e-02 -6.673159450292587280e-02 -1.693938300013542175e-02 -6.707669049501419067e-02 -6.111175753176212311e-04 2.837818115949630737e-02 3.666766453534364700e-03 -1.586959697306156158e-03 -1.212517172098159790e-02 4.435642063617706299e-02 2.327031642198562622e-02 3.983951359987258911e-02 4.835262522101402283e-02 -8.300829678773880005e-03 -1.103655528277158737e-02 -7.803084701299667358e-02 6.266175955533981323e-02 -4.530126973986625671e-02 -4.918164387345314026e-02 4.626745730638504028e-02 -5.443510413169860840e-02 -3.169551724568009377e-03 -5.505072325468063354e-02 4.598385468125343323e-02 -8.467657491564750671e-03 5.589507520198822021e-02 -8.961274474859237671e-02 -3.549848869442939758e-02 -5.834938585758209229e-02 6.446765363216400146e-02 4.611362516880035400e-02 5.165036022663116455e-02 5.737653747200965881e-02 2.064993232488632202e-02 3.529966995120048523e-02 1.993063464760780334e-02 3.853041306138038635e-02 2.323305420577526093e-02 -7.067123800516128540e-02 5.031070485711097717e-02 -8.333931677043437958e-03 -6.700101494789123535e-02 -7.271848618984222412e-02 7.947576791048049927e-02 7.996344007551670074e-03 8.233515173196792603e-02 -7.977651694091036916e-05 6.788051128387451172e-02 -4.442407190799713135e-02 -3.057372383773326874e-02 -4.892743006348609924e-02
