2.610354498028755188e-02 5.229198560118675232e-02 -1.938274316489696503e-02 -4.308422561734914780e-03 -7.965286076068878174e-02 -1.746437698602676392e-02 6.632936745882034302e-02 -7.375237345695495605e-02 -5.307016149163246155e-02 3.222849592566490173e-02 4.143308103084564209e-02 -7.094382494688034058e-02 -7.183478772640228271e-02 3.310468792915344238e-02 6.799697130918502808e-02 -6.541024893522262573e-03 -3.783333301544189453e-02 6.516744196414947510e-02 1.931690238416194916e-02 -2.712802402675151825e-02 -7.398736476898193359e-02 -4.658090695738792419e-02 2.707636170089244843e-02 -2.203825488686561584e-02 -3.193460777401924133e-02 1.957441121339797974e-02 2.272039838135242462e-02 -2.748000249266624451e-02 -6.938838399946689606e-03 -2.203740365803241730e-02 -3.944814205169677734e-02 2.242293022572994232e-02 4.992779344320297241e-02 -5.786173418164253235e-02 -5.314669758081436157e-02 5.371749773621559143e-02 -7.050123065710067749e-02 -5.695204809308052063e-02 1.232425868511199951e-02 4.482597578316926956e-03 -8.314462006092071533e-02 5.907319858670234680e-02 -6.913661211729049683e-02 -6.242668256163597107e-02 -1.413706224411725998e-02 -6.214346736669540405e-02 -1.554704830050468445e-02 -7.070036977529525757e-02 1.416969206184148788e-02 -5.708367750048637390e-02 -1.589945331215858459e-02 1.266975142061710358e-02 5.280463397502899170e-02 3.880244493484497070e-02 1.643808931112289429e-02 -3.732503950595855713e-02 1.513253373559564352e-04 -6.859169155359268188e-02 5.472000688314437866e-02 -6.155880913138389587e-02 -1.257462613284587860e-02 -6.719928979873657227e-02 -2.595557272434234619e-02 -3.355719149112701416e-02 -3.477639518678188324e-03 1.216972991824150085e-02 1.389426365494728088e-02 1.868185028433799744e-02 -3.577698394656181335e-02 -3.631754219532012939e-02 2.634821925312280655e-03 -5.407120287418365479e-02 1.241258578374981880e-03 -6.700791418552398682e-02 8.667053654789924622e-03 -7.123087346553802490e-02 -4.395260661840438843e-02 1.418553665280342102e-02 -5.926072481088340282e-04 2.530508674681186676e-02 1.712380349636077881e-02 5.759967025369405746e-03 3.140377253293991089e-02 -7.243258506059646606e-02 -6.126746535301208496e-02 -4.143302142620086670e-02 -6.939063966274261475e-02 1.324366312474012375e-02 -6.542166322469711304e-02 -3.379360213875770569e-02 1.680341362953186035e-02 -1.223507244139909744e-02 4.214400425553321838e-02 6.577769294381141663e-03 -3.689157590270042419e-02 1.318276859819889069e-02 -6.384556740522384644e-02 2.022276632487773895e-02 5.428934469819068909e-02 -2.378193661570549011e-02 6.442168354988098145e-02 2.432430908083915710e-02 -3.405364230275154114e-02 3.501617535948753357e-02 -3.786810114979743958e-02 -7.374570704996585846e-03 4.086873680353164673e-02 3.823700547218322754e-02 1.968532800674438477e-03 -1.714534685015678406e-02 3.965010400861501694e-03 2.544297836720943451e-02 -4.184781759977340698e-02 4.666052013635635376e-02 -2.281136438250541687e-02 3.281220048666000366e-02 -4.261567443609237671e-02 -6.569152325391769409e-02 -4.695656895637512207e-02 3.533697128295898438e-02 -9.396246075630187988e-02 6.189355999231338501e-02 1.805139146745204926e-02 -4.575387015938758850e-02 -3.144925460219383240e-02 4.291016608476638794e-02 -3.105006180703639984e-02 1.082676555961370468e-02 -5.627071112394332886e-02 1.120046805590391159e-02 6.565769761800765991e-02 -3.562402352690696716e-02 2.447434142231941223e-02 3.247168660163879395e-02 6.366471201181411743e-02 4.738656431436538696e-02 2.861459925770759583e-02 -3.374257311224937439e-02 4.212446510791778564e-02 -3.946550190448760986e-02 -4.808355867862701416e-02 -1.746544986963272095e-02 -3.788577020168304443e-02 -3.290982544422149658e-02 -8.249760419130325317e-02 -1.557300984859466553e-02 -7.095083594322204590e-02 6.048491969704627991e-02 -6.677080411463975906e-03 4.750953242182731628e-02 -4.581697285175323486e-02 -3.329732269048690796e-02 3.001828119158744812e-02 1.595403440296649933e-02 -9.146618843078613281e-02 -6.238625571131706238e-02 -3.797117155045270920e-03 -5.838906858116388321e-03 -5.440387874841690063e-02 2.682737819850444794e-02 -1.002436503767967224e-02 4.542814567685127258e-02 2.571342885494232178e-02 -2.326662093400955200e-02 -6.576050817966461182e-02 -3.474327549338340759e-02 1.806383393704891205e-02 5.200690776109695435e-02 4.905005171895027161e-02 5.815754085779190063e-02 -7.828269153833389282e-03 -5.050889030098915100e-02 -6.487977504730224609e-02 2.349005453288555145e-02 -8.630771189928054810e-03 4.288577288389205933e-02 -3.838665038347244263e-02 1.068204082548618317e-02 -3.305251523852348328e-02 5.275798588991165161e-02 4.080852959305047989e-03 3.266847506165504456e-02 4.240127280354499817e-02 3.643271327018737793e-02 4.526948928833007812e-02 5.592789500951766968e-02 5.634191632270812988e-02 2.456971257925033569e-02 3.292851895093917847e-02 -5.212874338030815125e-02 -4.476597532629966736e-02 1.690836064517498016e-02 -3.819554299116134644e-02 4.075799137353897095e-02 3.689765185117721558e-02 -2.796719409525394440e-02 -8.607021719217300415e-02 6.675236672163009644e-02 -4.816668853163719177e-02 2.629827335476875305e-02
4.031531885266304016e-02 3.361833840608596802e-02 -4.134478047490119934e-02 -5.929049476981163025e-02 -1.948737911880016327e-02 -7.796666026115417480e-02 6.383034586906433105e-02 -8.757834136486053467e-02 -1.328053139150142670e-02 4.036560188978910446e-03 6.000966206192970276e-02 -1.989736780524253845e-02 4.713703691959381104e-02 -4.530243575572967529e-03 3.582523763179779053e-02 1.436498109251260757e-02 -4.624721407890319824e-02 -3.874264890328049660e-03 4.774689674377441406e-02 -4.833432286977767944e-02 2.326161973178386688e-02 3.456184640526771545e-02 5.835305526852607727e-02 -2.164855366572737694e-03 -1.284985896199941635e-02 -7.122752815485000610e-02 -2.876343019306659698e-02 -4.784784093499183655e-02 -5.049568787217140198e-02 1.580462791025638580e-02 1.548502221703529358e-02 -6.728259474039077759e-02 -6.967337429523468018e-02 -1.355970278382301331e-03 -3.118633292615413666e-02 2.283639460802078247e-02 5.788575857877731323e-02 -6.615018099546432495e-02 -3.739091381430625916e-02 -1.227681245654821396e-02 -8.695337921380996704e-02 -4.495663195848464966e-02 1.851845905184745789e-02 -6.585671007633209229e-02 -6.165873259305953979e-02 4.398210346698760986e-02 -5.692068114876747131e-02 3.437924385070800781e-02 -1.955370791256427765e-02 -3.844933584332466125e-02 1.946480944752693176e-02 4.651371762156486511e-02 1.360890641808509827e-02 -8.054045028984546661e-03 -4.158084094524383545e-02 -1.300257630646228790e-02 4.748623073101043701e-02 -7.248651236295700073e-02 -7.224258780479431152e-02 3.592540323734283447e-02 -4.759958386421203613e-02 -1.274949591606855392e-02 2.497101388871669769e-02 -4.022102802991867065e-02 -5.730602145195007324e-02 -4.671194404363632202e-02 5.177020654082298279e-02 -5.261357128620147705e-02 -2.727831900119781494e-02 5.287199094891548157e-02 -6.829034537076950073e-02 3.247547894716262817e-02 -1.691291294991970062e-02 -5.709954351186752319e-02 5.644294992089271545e-02 1.620017224922776222e-03 3.339097835123538971e-03 -2.476970851421356201e-02 3.989876806735992432e-02 -4.447432607412338257e-02 3.972300142049789429e-02 -2.233271487057209015e-03 5.755841732025146484e-02 -3.917329013347625732e-03 -7.416977733373641968e-02 -5.588357802480459213e-03 -3.981417417526245117e-02 6.455603986978530884e-02 2.740773372352123260e-02 -3.239369392395019531e-02 -5.968756973743438721e-02 -2.794772759079933167e-02 -2.421242650598287582e-03 -1.841091550886631012e-02 4.781286790966987610e-02 -4.058757051825523376e-02 4.558133706450462341e-02 -5.803190544247627258e-02 -3.628404065966606140e-02 -5.687610432505607605e-02 -5.937216803431510925e-02 -3.787714242935180664e-02 4.273778945207595825e-02 3.250005096197128296e-02 -6.926562637090682983e-02 -1.175311766564846039e-02 -4.706605151295661926e-02 4.581310972571372986e-02 -3.830171003937721252e-02 -7.366397231817245483e-02 -5.908180028200149536e-02 -5.074174702167510986e-02 -7.109586894512176514e-02 -6.410267204046249390e-03 9.951448999345302582e-03 -1.310723926872014999e-02 -9.396466426551342010e-03 -6.773591786623001099e-02 -2.859194390475749969e-02 5.984513834118843079e-02 -1.961050927639007568e-02 -3.086041845381259918e-02 -8.132249861955642700e-02 1.510276831686496735e-02 -8.349179476499557495e-02 1.892238855361938477e-02 -8.416126482188701630e-03 1.257950812578201294e-02 -6.666360050439834595e-02 4.862349852919578552e-02 -2.256363071501255035e-02 2.207834040746092796e-03 -3.102649748325347900e-02 -6.593929603695869446e-03 6.610419601202011108e-02 -4.785704240202903748e-02 1.814592629671096802e-02 -4.059407860040664673e-03 -6.363145262002944946e-02 4.559895396232604980e-02 1.059141568839550018e-02 -1.041229814291000366e-02 6.665430217981338501e-02 7.015139609575271606e-02 1.319415494799613953e-02 3.076603822410106659e-02 9.560752660036087036e-03 3.240796551108360291e-02 -6.410844624042510986e-02 4.245651140809059143e-02 -1.268896088004112244e-02 1.597636006772518158e-02 2.716112509369850159e-02 6.714195758104324341e-02 -6.217554211616516113e-02 6.911661941558122635e-03 4.277038946747779846e-02 -4.950090870261192322e-02 -5.342612788081169128e-02 6.204606592655181885e-02 3.902537748217582703e-02 -1.528976950794458389e-02 3.339624777436256409e-02 1.457933243364095688e-02 -5.411012843251228333e-02 3.144905343651771545e-02 -8.694172138348221779e-04 -3.182641416788101196e-02 4.071155562996864319e-02 -5.317516252398490906e-02 4.776129499077796936e-02 5.015501379966735840e-02 6.446074112318456173e-04 -7.653675973415374756e-02 -2.123679779469966888e-02 -7.234860956668853760e-02 -7.711802423000335693e-02 5.235482379794120789e-02 -7.759353611618280411e-03 5.620824173092842102e-03 -6.818359252065420151e-03 -3.337592259049415588e-02 -2.428389154374599457e-03 4.487961903214454651e-02 -4.173928126692771912e-02 -6.292469799518585205e-02 -4.589589312672615051e-02 -6.557875126600265503e-02 -6.245760247111320496e-02 -5.258137360215187073e-03 -8.363719098269939423e-03 -2.445707097649574280e-03 -3.701515868306159973e-02 2.305050007998943329e-02 2.646966092288494110e-02 4.846099391579627991e-02 -9.145140647888183594e-02 -6.142335757613182068e-02 -7.478530704975128174e-02 3.021873161196708679e-02
1.480728387832641602e-02 -1.004342827945947647e-02 -5.222440231591463089e-03 5.874634534120559692e-02 1.359931472688913345e-02 -5.945723503828048706e-02 -5.411321297287940979e-02 -5.102576315402984619e-02 -2.085025794804096222e-02 2.141350880265235901e-03 5.076976493000984192e-02 5.872686952352523804e-02 6.046317517757415771e-02 1.433234941214323044e-02 8.193589746952056885e-03 -4.664211720228195190e-02 2.170280180871486664e-02 2.098061330616474152e-02 -8.030191529542207718e-04 6.835120916366577148e-02 -2.281988039612770081e-02 -7.313808053731918335e-02 3.044106438755989075e-02 2.153712883591651917e-02 2.404276514425873756e-03 4.222211614251136780e-02 1.833937875926494598e-02 -2.120860293507575989e-02 3.426597639918327332e-02 -4.892598092555999756e-02 -8.326249569654464722e-02 1.117609627544879913e-02 -2.818341739475727081e-02 -4.277100414037704468e-02 -2.538197487592697144e-02 6.593782454729080200e-02 5.176538228988647461e-02 -6.894928216934204102e-02 9.683489799499511719e-03 -7.450441364198923111e-03 -5.826044082641601562e-02 -6.361316889524459839e-02 5.655303597450256348e-02 -6.090396642684936523e-02 -2.543872408568859100e-02 5.874493718147277832e-02 -5.190006643533706665e-02 -5.247000232338905334e-02 4.480227828025817871e-02 -2.661279961466789246e-02 2.725742757320404053e-02 2.516385912895202637e-02 -2.596317790448665619e-02 1.661721244454383850e-02 -1.715394482016563416e-02 2.556368149816989899e-02 1.207767147570848465e-02 -9.661849588155746460e-03 -2.170602604746818542e-02 2.847520820796489716e-02 -3.351202607154846191e-02 -4.943002760410308838e-02 -2.519249450415372849e-03 -5.981495976448059082e-02 1.775868795812129974e-02 2.763812663033604622e-03 -8.340806700289249420e-03 6.862106919288635254e-02 4.203333333134651184e-02 -6.755378842353820801e-02 -3.335692733526229858e-02 3.552059829235076904e-02 -2.841472811996936798e-02 -5.972849205136299133e-02 -3.174539655447006226e-02 -1.207152102142572403e-02 -4.868913441896438599e-02 1.502664759755134583e-02 4.337780550122261047e-02 -5.381831899285316467e-02 -7.090003043413162231e-02 -5.833341553807258606e-02 9.471287950873374939e-03 3.438131138682365417e-02 -7.330537587404251099e-02 1.669744960963726044e-02 2.308927243575453758e-03 -1.283440925180912018e-02 4.135223105549812317e-03 -4.018909484148025513e-02 6.612083315849304199e-02 -5.438446998596191406e-02 -5.268272757530212402e-02 2.788409125059843063e-03 -4.451556876301765442e-02 -2.855384163558483124e-02 -4.437641426920890808e-02 -9.507206268608570099e-03 5.290673300623893738e-02 -1.629447191953659058e-02 -2.841867320239543915e-02 -1.409170404076576233e-02 -3.076004236936569214e-02 9.003068320453166962e-03 -3.944835066795349121e-02 -5.329007981345057487e-04 -3.746738657355308533e-02 2.213617041707038879e-02 -2.744975313544273376e-02 -4.253217205405235291e-02 4.186265170574188232e-02 -1.547988969832658768e-02 5.541082471609115601e-02 -4.919378831982612610e-02 -1.173932850360870361e-02 1.846188679337501526e-02 -2.257131971418857574e-02 -4.437825083732604980e-02 -4.965949058532714844e-02 -3.730435157194733620e-03 1.532943919301033020e-02 -7.318650931119918823e-02 -6.636677682399749756e-02 2.055066078901290894e-02 -4.370034113526344299e-02 -5.101944133639335632e-02 -4.161925613880157471e-02 -2.708069793879985809e-02 6.042777746915817261e-02 -6.776324659585952759e-02 2.529487200081348419e-02 -5.242468416690826416e-02 -8.534254133701324463e-02 3.904786705970764160e-02 -4.396890848875045776e-02 4.959017038345336914e-02 -8.003545552492141724e-02 4.207423329353332520e-02 -3.127299994230270386e-02 -6.164174061268568039e-03 -5.034737754613161087e-03 1.140388567000627518e-02 -5.275246873497962952e-02 4.303491115570068359e-02 4.469718411564826965e-02 -4.152569547295570374e-02 1.293974742293357849e-02 -5.270658805966377258e-02 5.529639497399330139e-02 3.952220082283020020e-02 1.665084622800350189e-02 -7.946118712425231934e-02 6.470485031604766846e-02 5.365437269210815430e-02 -9.233809262514114380e-02 2.979275584220886230e-02 3.990765661001205444e-02 -7.038868963718414307e-03 1.487734168767929077e-02 4.382314160466194153e-02 -1.104072108864784241e-02 1.858356408774852753e-02 -3.068945929408073425e-02 1.148308720439672470e-02 -3.850294277071952820e-02 1.342696417123079300e-02 -3.371483832597732544e-02 -1.747028157114982605e-02 6.681057065725326538e-02 -1.683509722352027893e-02 -5.950675532221794128e-02 -6.055232603102922440e-03 -5.120729655027389526e-02 -3.605228662490844727e-02 -3.587084636092185974e-02 -6.084026023745536804e-02 -1.318625919520854950e-02 2.527111023664474487e-02 5.385774001479148865e-02 2.774022892117500305e-02 -4.652506113052368164e-02 4.921498894691467285e-02 -2.007087692618370056e-02 4.561381787061691284e-02 -3.037190623581409454e-02 8.550576865673065186e-03 1.302907895296812057e-02 3.212989866733551025e-02 3.331349790096282959e-02 -2.949730493128299713e-02 7.599926553666591644e-03 -2.556380257010459900e-02 2.039263211190700531e-02 -2.056752145290374756e-02 -5.528115481138229370e-02 -5.338073894381523132e-02 -2.975362911820411682e-02 -9.798940736800432205e-04 4.506749659776687622e-02 -5.506144836544990540e-02
-4.789017140865325928e-02 -1.699877530336380005e-02 -4.737345501780509949e-02 -2.620022557675838470e-02 -1.339936279691755772e-03 -9.073687344789505005e-02 -4.392000287771224976e-02 -5.405540391802787781e-02 5.785604193806648254e-02 -7.464955747127532959e-02 4.499741271138191223e-02 -1.721329637803137302e-03 1.172634121030569077e-02 -1.954170130193233490e-02 -6.679880619049072266e-02 -6.014420092105865479e-02 -6.343916058540344238e-02 6.723414361476898193e-02 -1.475236844271421432e-02 3.602759167551994324e-02 -4.672584682703018188e-02 5.187560245394706726e-02 5.181688442826271057e-02 2.617713250219821930e-02 -1.745737856253981590e-03 -1.755558513104915619e-02 -3.313332796096801758e-02 3.176072239875793457e-02 3.244609758257865906e-02 8.195154368877410889e-03 4.262254387140274048e-02 9.470086544752120972e-03 4.119597002863883972e-02 -3.889333829283714294e-02 -7.266668975353240967e-02 -6.685641407966613770e-02 1.816329360008239746e-02 -5.124901607632637024e-02 -6.599396467208862305e-02 3.293415531516075134e-02 3.048701025545597076e-02 3.440809622406959534e-02 -3.087887074798345566e-03 -4.777938500046730042e-02 6.145516876131296158e-03 5.237727612257003784e-02 3.128318116068840027e-02 -1.512566115707159042e-02 -7.936080917716026306e-03 -1.171022932976484299e-02 -5.555550754070281982e-02 3.901475109159946442e-03 -2.820393256843090057e-02 4.528752714395523071e-02 -1.689826697111129761e-02 3.138631954789161682e-02 1.003411132842302322e-02 4.270838946104049683e-02 2.351978421211242676e-02 3.317090868949890137e-02 3.755875304341316223e-02 -4.927481710910797119e-02 -3.976490348577499390e-02 1.971565559506416321e-02 4.844636842608451843e-02 1.267398241907358170e-02 -3.407382592558860779e-02 2.586111426353454590e-02 -1.719671860337257385e-02 3.219441697001457214e-02 -1.759842224419116974e-02 -7.786844857037067413e-03 -1.117186620831489563e-02 -8.612769097089767456e-02 2.378204138949513435e-03 -6.221884116530418396e-02 3.328951820731163025e-02 2.053274214267730713e-02 1.186260953545570374e-02 -9.257512167096138000e-03 3.574675694108009338e-02 2.623118460178375244e-02 4.892541840672492981e-02 5.297423899173736572e-02 -6.488049030303955078e-02 6.008144468069076538e-02 -5.028267577290534973e-02 -5.798469111323356628e-02 6.173937395215034485e-02 -1.938093453645706177e-02 3.752267360687255859e-02 -7.344198971986770630e-02 -5.924844369292259216e-02 -7.074190676212310791e-02 3.083421476185321808e-02 -2.069380134344100952e-02 5.620188638567924500e-02 -1.234668493270874023e-02 3.100994788110256195e-02 -7.744237780570983887e-02 5.700326338410377502e-02 -8.125999011099338531e-03 5.645902827382087708e-02 2.321176230907440186e-02 5.837009102106094360e-02 2.633680589497089386e-02 1.141207665205001831e-02 -4.100087285041809082e-02 5.929147452116012573e-02 -4.723102226853370667e-02 2.041848190128803253e-02 2.515328302979469299e-02 4.135237261652946472e-02 5.016764253377914429e-02 -1.369526982307434082e-02 -5.216503888368606567e-02 -6.106340140104293823e-02 -4.953500628471374512e-02 3.557700663805007935e-02 -1.921314187347888947e-02 6.238872651010751724e-03 -7.234708219766616821e-02 -1.976507343351840973e-02 3.469571098685264587e-02 -7.770169526338577271e-02 -4.992384091019630432e-02 1.574827358126640320e-02 4.202987998723983765e-03 3.972302004694938660e-02 5.731436982750892639e-02 -3.793457895517349243e-02 -1.852615363895893097e-02 2.387928962707519531e-02 2.203983627259731293e-02 -3.396186605095863342e-02 6.385613977909088135e-02 2.752202004194259644e-02 1.453875098377466202e-02 -6.668612360954284668e-02 2.846467122435569763e-02 5.746545270085334778e-02 -6.142921745777130127e-02 -5.264748353511095047e-03 -4.248441010713577271e-02 -2.206064201891422272e-02 -3.620204329490661621e-02 -3.248992189764976501e-02 -1.407680194824934006e-02 -7.763565983623266220e-03 5.444376915693283081e-02 5.636723712086677551e-02 -8.390370756387710571e-02 -5.723828822374343872e-02 4.587680101394653320e-02 -1.276170928031206131e-02 -5.420232657343149185e-03 -5.836176127195358276e-02 -1.550398208200931549e-02 -6.778209656476974487e-02 6.322510540485382080e-02 1.873204670846462250e-02 3.605598956346511841e-02 -1.274919509887695312e-02 -2.407165244221687317e-02 -2.979851700365543365e-02 -5.923062190413475037e-02 3.020361252129077911e-02 3.309251740574836731e-02 2.788389287889003754e-02 -4.163124412298202515e-02 -3.497925773262977600e-02 3.916392475366592407e-02 2.861040644347667694e-02 -6.875626742839813232e-02 -6.439936906099319458e-02 -4.702628590166568756e-03 5.946963652968406677e-02 -6.336417794227600098e-02 -3.020362742245197296e-02 -6.169395986944437027e-03 -6.409137696027755737e-02 3.664207085967063904e-02 -9.948648512363433838e-03 1.116373948752880096e-02 4.919756948947906494e-02 2.466841042041778564e-02 1.707286573946475983e-02 -5.302830412983894348e-02 6.514652818441390991e-02 -7.251875102519989014e-02 -8.182185143232345581e-02 -1.080895029008388519e-02 -4.937247931957244873e-02 -2.516596764326095581e-02 4.193116724491119385e-02 -3.729976713657379150e-02 -6.153231859207153320e-02 8.245467208325862885e-03 2.158819325268268585e-02 2.666651830077171326e-02
5.167092755436897278e-02 6.950503680855035782e-03 5.681537464261054993e-02 -2.574733458459377289e-02 -4.770959168672561646e-02 -1.287638209760189056e-02 7.585615850985050201e-03 -1.778092421591281891e-02 -4.872342199087142944e-02 2.259593270719051361e-02 4.109644144773483276e-02 5.496708676218986511e-02 5.889025703072547913e-02 -4.460499808192253113e-02 3.535654395818710327e-02 4.364393651485443115e-02 -4.309675842523574829e-02 4.382439702749252319e-02 5.030158907175064087e-02 5.574610829353332520e-02 8.899484761059284210e-03 -1.579010672867298126e-02 3.941552340984344482e-02 2.613698691129684448e-02 -3.305456833913922310e-03 -2.103005349636077881e-02 6.096803396940231323e-02 -4.610844701528549194e-02 3.432464599609375000e-02 -5.296773090958595276e-02 -5.068948492407798767e-02 4.215537011623382568e-02 6.035627797245979309e-02 -7.078091800212860107e-02 -6.033442169427871704e-02 6.616522371768951416e-02 2.370197325944900513e-02 4.540677648037672043e-03 4.970112442970275879e-02 3.794187679886817932e-02 -4.276662692427635193e-02 5.238347500562667847e-02 -4.125192388892173767e-02 3.555864095687866211e-03 -5.570989451371133327e-04 -6.745150312781333923e-03 2.648962102830410004e-02 -7.792017888277769089e-03 -1.424852292984724045e-03 -6.909319013357162476e-02 1.769929565489292145e-02 2.545114234089851379e-02 2.367930486798286438e-02 6.507354229688644409e-02 -5.247555673122406006e-03 -3.718395158648490906e-02 4.279941320419311523e-02 8.338914252817630768e-03 2.983020804822444916e-02 4.243832081556320190e-03 -1.572766713798046112e-02 -8.140543848276138306e-02 2.802784368395805359e-02 -2.703719213604927063e-02 6.107406318187713623e-02 2.299842052161693573e-02 -4.631914570927619934e-02 -6.825027614831924438e-02 -6.801551580429077148e-02 -5.659578368067741394e-02 -7.431102544069290161e-02 -3.885042155161499977e-03 2.485939115285873413e-02 4.461167845875024796e-03 4.395793005824089050e-02 -3.655827045440673828e-02 6.154565513134002686e-02 4.093864187598228455e-02 -6.683207582682371140e-03 3.313797339797019958e-02 2.706476673483848572e-02 6.361754238605499268e-02 2.480505965650081635e-03 -1.024021022021770477e-02 -3.845694288611412048e-02 -5.700965225696563721e-02 -1.551979035139083862e-02 4.731294233351945877e-03 5.848682019859552383e-03 4.261458292603492737e-02 -4.871753510087728500e-03 -4.238387569785118103e-02 -3.799189254641532898e-02 -1.837807707488536835e-02 -2.279167063534259796e-02 -7.687419652938842773e-03 -7.717798929661512375e-03 -6.132793053984642029e-02 5.500292405486106873e-02 -3.066827729344367981e-02 -6.925199925899505615e-02 3.386211022734642029e-02 5.589993670582771301e-02 5.428131297230720520e-02 5.716934334486722946e-03 3.311280906200408936e-02 3.301815688610076904e-02 2.314587309956550598e-02 6.138329952955245972e-02 -6.793232634663581848e-03 -9.720916301012039185e-02 -2.344036288559436798e-02 -1.004509348422288895e-02 1.639937981963157654e-02 3.471736982464790344e-02 4.595389589667320251e-02 -1.210638973861932755e-02 -2.837788127362728119e-02 -3.496428579092025757e-02 3.787150606513023376e-03 -4.456571862101554871e-02 -3.517503151670098305e-03 -2.499345690011978149e-02 -1.225802395492792130e-02 -6.461234763264656067e-03 -6.779767572879791260e-02 -6.528954952955245972e-02 -2.515196613967418671e-02 -1.394023932516574860e-02 -5.112316459417343140e-02 6.179628893733024597e-03 -6.273885071277618408e-02 -3.576881811022758484e-02 -6.686615943908691406e-02 -4.637972638010978699e-02 6.515417993068695068e-02 -2.311304584145545959e-02 1.828925870358943939e-02 -7.197953015565872192e-02 -3.334542363882064819e-02 5.913790687918663025e-02 -4.135077819228172302e-02 6.434664130210876465e-02 -2.375941025093197823e-03 -7.701496034860610962e-02 -6.097860634326934814e-02 -7.971961796283721924e-02 4.225349426269531250e-02 4.375588893890380859e-02 -3.514062240719795227e-02 4.211527854204177856e-02 5.087153520435094833e-03 -5.171305686235427856e-02 -3.864919394254684448e-02 -8.656464517116546631e-02 -2.195529639720916748e-03 2.193286083638668060e-02 3.294228017330169678e-02 5.656909570097923279e-02 -1.277852710336446762e-02 -4.116984456777572632e-02 -1.419846620410680771e-02 2.684373036026954651e-02 2.434363961219787598e-02 3.383110463619232178e-02 6.762661039829254150e-02 3.252860903739929199e-02 -3.311671689152717590e-02 -2.260582987219095230e-04 -4.625831916928291321e-02 4.654498770833015442e-02 -6.533428281545639038e-02 -6.353623420000076294e-02 -6.744218617677688599e-02 -3.113130107522010803e-02 -4.978569224476814270e-03 3.578168898820877075e-02 4.731916636228561401e-02 -6.886768341064453125e-02 6.118007749319076538e-02 -3.973307088017463684e-02 -4.292621836066246033e-02 -1.370618771761655807e-02 -3.419261053204536438e-02 -3.152171894907951355e-02 4.176059365272521973e-02 1.758354716002941132e-02 -3.174426406621932983e-02 6.360685918480157852e-03 -3.277773037552833557e-02 1.014848519116640091e-02 2.064805477857589722e-02 -3.054888732731342316e-02 5.970790609717369080e-02 2.905098488554358482e-03 1.822429336607456207e-02 -1.039723455905914307e-01 -5.701442435383796692e-02 1.536620035767555237e-02 -2.697186917066574097e-02
-6.627918779850006104e-02 -6.545498967170715332e-02 -1.608846150338649750e-02 5.487826839089393616e-02 -1.906207203865051270e-02 -6.042691692709922791e-02 1.382421888411045074e-02 -8.885914087295532227e-02 -6.234582886099815369e-02 -1.925847306847572327e-02 1.686482573859393597e-05 -2.306969463825225830e-02 -4.219412803649902344e-02 1.676735235378146172e-03 -4.514458030462265015e-02 -1.880896091461181641e-02 -7.718776166439056396e-02 -5.860491842031478882e-02 -1.888184994459152222e-02 1.844286546111106873e-02 -4.410098120570182800e-02 -6.653292477130889893e-02 9.424938820302486420e-03 -1.498874393291771412e-03 -4.756314679980278015e-02 2.419950999319553375e-02 3.936894237995147705e-02 3.582907840609550476e-02 -5.543318763375282288e-02 -5.951355770230293274e-02 1.924381405115127563e-02 -8.951619267463684082e-03 4.146915301680564880e-02 -3.625716269016265869e-02 -4.521667025983333588e-03 -4.131437838077545166e-02 5.605674535036087036e-02 2.989325858652591705e-02 -4.401008039712905884e-02 4.800447728484869003e-03 4.767942056059837341e-02 1.130467373877763748e-02 1.003715326078236103e-03 -3.045343048870563507e-02 2.385485544800758362e-02 -3.922787681221961975e-02 -3.243638202548027039e-02 5.924618989229202271e-02 -5.100462585687637329e-02 3.382981568574905396e-02 -1.467005349695682526e-02 6.330515444278717041e-02 5.303718522191047668e-02 4.697320051491260529e-03 -2.369252219796180725e-02 1.675450801849365234e-02 1.713590510189533234e-02 -3.625074401497840881e-02 2.841893583536148071e-02 -7.815358787775039673e-02 3.643110021948814392e-02 -7.695028930902481079e-02 -9.781935811042785645e-02 -3.214581683278083801e-02 -5.739539861679077148e-02 -5.064351484179496765e-02 7.609444670379161835e-03 -6.665042042732238770e-02 5.678203888237476349e-03 4.385137557983398438e-02 -1.711417734622955322e-02 1.154814101755619049e-02 2.216908521950244904e-02 6.136067677289247513e-03 1.634687744081020355e-02 5.588824301958084106e-02 -1.469987258315086365e-02 -2.192390337586402893e-02 6.198821216821670532e-02 -1.285382080823183060e-02 2.920729108154773712e-03 1.277974527329206467e-02 1.634206064045429230e-02 4.886287823319435120e-02 -6.373436748981475830e-02 -4.729606211185455322e-02 -2.914521284401416779e-02 -1.805993355810642242e-02 2.168229408562183380e-02 2.085292653646320105e-04 2.253063581883907318e-02 -6.788250058889389038e-03 5.047447606921195984e-02 -8.951042592525482178e-02 -2.972077205777168274e-02 -3.974793478846549988e-02 -3.515078499913215637e-02 3.895957022905349731e-02 -5.274885147809982300e-02 -7.134997099637985229e-02 -3.954228013753890991e-02 -1.664827205240726471e-02 -7.213851064443588257e-02 -4.584677517414093018e-02 -1.778128370642662048e-02 3.415439277887344360e-02 6.317196041345596313e-02 -4.833999648690223694e-02 1.933732628822326660e-02 -2.795003354549407959e-02 3.605256229639053345e-02 5.336389690637588501e-02 3.673370555043220520e-02 -3.781261853873729706e-03 3.506757318973541260e-02 5.394190177321434021e-02 6.470505893230438232e-02 -4.173497436568140984e-04 -2.982437610626220703e-02 -3.907691314816474915e-02 2.047713380306959152e-03 1.296574901789426804e-02 3.655095398426055908e-02 3.679220378398895264e-02 -3.921901434659957886e-02 -3.805418685078620911e-02 -4.612225294113159180e-02 2.293033897876739502e-02 2.430353499948978424e-02 -5.800213664770126343e-03 4.304064810276031494e-02 -8.275773376226425171e-03 -6.582391262054443359e-02 6.993497908115386963e-02 -4.669696465134620667e-02 3.909325227141380310e-03 2.431906573474407196e-02 -2.720259502530097961e-02 -2.748338505625724792e-02 -2.692344132810831070e-03 6.174943968653678894e-02 -3.060238994657993317e-02 1.462228875607252121e-02 3.395102173089981079e-02 -6.097248196601867676e-02 -5.059713497757911682e-03 -1.023963000625371933e-02 2.235120162367820740e-02 1.938574761152267456e-02 3.707476705312728882e-02 6.075021252036094666e-02 -9.082419425249099731e-02 1.243430376052856445e-02 4.793284088373184204e-02 -6.374809145927429199e-02 6.319218873977661133e-02 2.306790277361869812e-02 1.262088771909475327e-02 2.005421370267868042e-02 2.396856807172298431e-02 -1.631158520467579365e-03 -8.242949098348617554e-02 -3.617227450013160706e-02 -5.745689570903778076e-02 -5.210562795400619507e-02 -5.680145323276519775e-02 -6.829130649566650391e-02 -4.119234904646873474e-02 -6.699577718973159790e-02 -3.308680653572082520e-02 -3.654236346483230591e-02 1.754100434482097626e-02 3.065488126594573259e-04 4.465330857783555984e-03 -6.456095725297927856e-02 -3.183371154591441154e-04 2.886477671563625336e-02 -2.986584417521953583e-02 -6.388049572706222534e-02 1.604576781392097473e-02 3.644053358584642410e-03 3.046310506761074066e-02 1.889148540794849396e-02 -4.071982577443122864e-02 -1.345444936305284500e-02 4.741462320089340210e-02 -3.427103906869888306e-02 6.022254377603530884e-02 -4.148936271667480469e-02 -1.956319669261574745e-03 -1.317675877362489700e-02 -6.489014625549316406e-02 1.232060510665178299e-02 6.286689639091491699e-02 -4.962038248777389526e-02 1.840077713131904602e-02 -7.675630040466785431e-03 4.930751770734786987e-02 -5.745357647538185120e-02 2.978882938623428345e-02
-3.019298426806926727e-02 -5.540871992707252502e-02 -7.728527486324310303e-02 -6.444625556468963623e-02 -1.596869826316833496e-01 1.143902353942394257e-02 4.408824443817138672e-02 4.986919835209846497e-02 -1.269539594650268555e-01 1.091892793774604797e-01 -2.261506579816341400e-02 6.193801388144493103e-02 2.143425494432449341e-02 -3.605803847312927246e-02 -2.380460128188133240e-02 -4.573075473308563232e-02 9.309624135494232178e-02 -3.370374813675880432e-02 1.804041266441345215e-01 -2.258724160492420197e-02 2.754949033260345459e-01 -5.118035897612571716e-02 2.608270384371280670e-02 -4.598874226212501526e-02 5.784640088677406311e-02 2.099436074495315552e-01 -2.058789692819118500e-02 1.567362099885940552e-01 6.966724991798400879e-02 -1.563903689384460449e-01 1.064537167549133301e-01 1.188068538904190063e-01 4.854485392570495605e-02 7.759238779544830322e-02 1.526974439620971680e-01 -5.135265737771987915e-02 -6.314903497695922852e-03 1.159812659025192261e-01 -4.103019461035728455e-02 9.552958607673645020e-02 7.426970452070236206e-02 -6.288401782512664795e-02 1.468072086572647095e-02 1.429505199193954468e-01 1.353486813604831696e-02 9.097530692815780640e-02 -3.525140509009361267e-02 1.519268304109573364e-01 -2.728509344160556793e-02 -1.093657314777374268e-01 1.863719895482063293e-02 -7.013012189418077469e-03 -1.684786938130855560e-02 1.270175725221633911e-01 -5.404268205165863037e-02 -1.437089499086141586e-02 -5.606387555599212646e-02 -1.039809435606002808e-01 1.211874559521675110e-01 -1.587808281183242798e-01 -4.024507477879524231e-02 7.968740910291671753e-02 7.810284197330474854e-02 3.818509727716445923e-02 -2.761524729430675507e-02 -7.400845736265182495e-02 -6.187035143375396729e-02 -5.314730852842330933e-02 2.563537061214447021e-01 -4.580700397491455078e-02 -1.341937333345413208e-01 -9.131982177495956421e-02 -7.928168028593063354e-02 2.038076333701610565e-02 -5.063541233539581299e-02 9.835525602102279663e-02 -2.278962172567844391e-03 -1.031099632382392883e-01 4.840761423110961914e-02 -1.048482358455657959e-01 1.653615571558475494e-02 7.785527501255273819e-03 -5.284490063786506653e-02 -1.629776805639266968e-01 9.220982319675385952e-04 -4.630357027053833008e-02 -1.690366268157958984e-01 -1.150544732809066772e-03 2.023180946707725525e-02 -1.132818534970283508e-01 8.851317316293716431e-02 -8.965344727039337158e-02 2.949067205190658569e-02 1.621704250574111938e-01 2.743576467037200928e-02 2.790550142526626587e-02 -4.168728739023208618e-02 1.630302965641021729e-01 2.640373818576335907e-02 4.487860016524791718e-03 1.434291154146194458e-01 -8.438751101493835449e-03 3.264692425727844238e-02 -5.093897879123687744e-02 1.483961194753646851e-01 -8.272090926766395569e-03 -5.442900583148002625e-02 2.851002290844917297e-02 5.678621679544448853e-02 -7.098018378019332886e-02 1.847195029258728027e-01 -6.405698508024215698e-02 -1.825494132936000824e-02 -5.283168703317642212e-02 1.009980449452996254e-03 -4.307702183723449707e-02 -4.666559398174285889e-02 3.776621818542480469e-02 3.831817209720611572e-02 3.653649613261222839e-02 1.371153863146901131e-03 -4.076263681054115295e-02 2.572165727615356445e-01 4.357149079442024231e-02 2.827922403812408447e-01 5.420486256480216980e-02 -8.993592113256454468e-03 -5.798614583909511566e-03 -1.198314055800437927e-01 -6.800906360149383545e-02 5.073367804288864136e-02 1.031206399202346802e-01 7.247808575630187988e-02 3.185522556304931641e-02 -1.076412945985794067e-02 4.164373129606246948e-02 -6.248950585722923279e-02 5.741065251640975475e-04 -1.347767710685729980e-01 4.804530367255210876e-02 -3.509517386555671692e-02 2.442301809787750244e-02 4.331774264574050903e-02 3.671312588267028332e-04 5.434961244463920593e-02 5.592853762209415436e-03 1.422477364540100098e-01 -7.631003856658935547e-02 1.315358281135559082e-01 -3.723862767219543457e-02 -5.833026394248008728e-02 1.442070603370666504e-01 -4.386088624596595764e-02 3.148643299937248230e-02 1.662019491195678711e-01 -5.607663467526435852e-02 1.806497722864151001e-01 -1.377824880182743073e-02 -4.203907400369644165e-02 -3.606991842389106750e-03 -1.991901397705078125e-01 -2.820247039198875427e-02 4.964655730873346329e-03 4.573497548699378967e-02 4.683319013565778732e-03 1.359624136239290237e-02 -8.282176218926906586e-03 4.588232561945915222e-02 3.254339471459388733e-02 -2.687832713127136230e-02 -3.171648830175399780e-02 7.861039042472839355e-02 -5.147896334528923035e-02 -8.552857488393783569e-02 -1.899746991693973541e-02 6.137502565979957581e-02 -1.042525991797447205e-01 8.229465782642364502e-02 4.718906059861183167e-02 4.912388324737548828e-02 1.510184109210968018e-01 9.190198965370655060e-03 4.294580593705177307e-02 1.001313924789428711e-01 -7.744479924440383911e-03 1.893871277570724487e-02 -4.748905822634696960e-02 4.929764568805694580e-02 4.195719212293624878e-02 2.440975904464721680e-01 -1.135417595505714417e-01 -7.425485551357269287e-02 -1.025515273213386536e-01 -1.100626289844512939e-01 3.540675155818462372e-03 -9.517554193735122681e-02 1.645424365997314453e-01 2.166572585701942444e-02 2.816297709941864014e-01 -2.688458375632762909e-02
-3.653352707624435425e-02 5.203570052981376648e-02 1.003350596874952316e-02 1.421373989433050156e-02 -6.169807910919189453e-02 -8.529844135046005249e-02 -6.558373570442199707e-02 -4.538951441645622253e-03 -7.656720280647277832e-02 -2.829623036086559296e-02 -1.931236684322357178e-02 -6.245134770870208740e-02 6.488542072474956512e-03 5.052063241600990295e-02 6.269352883100509644e-02 2.536102896556258202e-03 -5.922767147421836853e-02 6.842510402202606201e-02 3.297657147049903870e-02 3.385750204324722290e-02 -9.284891933202743530e-02 -2.099178731441497803e-02 3.784085437655448914e-02 -6.757219880819320679e-02 2.619187347590923309e-02 4.640942439436912537e-02 4.712270572781562805e-02 7.005861029028892517e-03 9.936143644154071808e-03 -4.783426597714424133e-02 -7.447655498981475830e-02 3.644305467605590820e-02 1.063141878694295883e-02 -7.029087096452713013e-02 -6.808678060770034790e-02 -4.117200896143913269e-02 -2.184047922492027283e-02 -5.041225999593734741e-02 -4.493632167577743530e-02 -8.353815972805023193e-02 -7.396264374256134033e-02 1.665612915530800819e-03 5.842385813593864441e-02 2.236573025584220886e-02 -6.896026432514190674e-02 -4.664869513362646103e-03 -6.121294200420379639e-02 -4.099776595830917358e-02 1.492194458842277527e-02 3.279903903603553772e-03 -5.321530625224113464e-02 -3.145156800746917725e-02 -2.199948532506823540e-03 1.393008697777986526e-02 -6.612446159124374390e-02 -4.547544196248054504e-02 2.806691080331802368e-02 -2.534191682934761047e-02 -2.002634108066558838e-02 4.420327767729759216e-02 1.894504949450492859e-02 4.433936625719070435e-02 3.200455009937286377e-02 2.881499007344245911e-02 -3.308523073792457581e-02 -3.890891745686531067e-02 6.485638767480850220e-02 4.198196157813072205e-02 -5.729983374476432800e-02 -5.521577969193458557e-02 -2.442060410976409912e-02 -4.528053849935531616e-02 -4.295701161026954651e-02 7.512328680604696274e-03 5.652936175465583801e-02 -4.389243945479393005e-02 -2.721154503524303436e-02 -7.153125107288360596e-02 6.316466256976127625e-03 -5.135375633835792542e-02 6.083776056766510010e-02 4.489870741963386536e-02 4.543649032711982727e-02 -1.968554034829139709e-02 -1.164011936634778976e-02 1.838183589279651642e-02 -2.306410670280456543e-02 6.842072308063507080e-02 2.381608635187149048e-02 -2.546194568276405334e-02 -5.063864588737487793e-02 1.101666409522294998e-02 -1.256311498582363129e-02 -1.529232040047645569e-02 -2.076969482004642487e-02 -4.650094360113143921e-02 3.908523172140121460e-02 -1.855111122131347656e-02 5.487655848264694214e-02 -3.689940646290779114e-02 6.246032565832138062e-02 -6.822174042463302612e-02 -7.521621137857437134e-02 -4.073704406619071960e-02 -4.281701892614364624e-02 -4.982911515980958939e-03 -5.927204713225364685e-02 5.232232064008712769e-02 -2.765735238790512085e-02 -5.049370601773262024e-02 -7.404827326536178589e-02 -1.027990877628326416e-02 -2.576483227312564850e-02 1.589903980493545532e-02 -1.676510646939277649e-02 -7.126088719815015793e-03 -1.643693819642066956e-02 -3.864419460296630859e-02 1.836709491908550262e-02 -5.065238475799560547e-02 -6.865724176168441772e-02 3.461301093921065331e-03 -1.099233422428369522e-02 -2.554780058562755585e-02 -3.745315968990325928e-02 4.622879996895790100e-02 -7.482073735445737839e-03 -6.404717266559600830e-02 -9.403015486896038055e-03 5.515412986278533936e-02 3.859933093190193176e-02 -1.078795269131660461e-02 5.028805881738662720e-02 2.755115740001201630e-02 9.664267301559448242e-03 -1.392206456512212753e-02 1.861129701137542725e-02 -6.445014476776123047e-02 4.228520020842552185e-02 -6.586524099111557007e-02 -2.087493613362312317e-02 -4.527766630053520203e-02 -6.534599512815475464e-02 -1.273009739816188812e-02 -6.971659138798713684e-03 -3.986081853508949280e-02 -2.323734015226364136e-02 2.631561644375324249e-02 -7.006710767745971680e-02 -1.873450912535190582e-02 -1.095530204474925995e-02 -5.547968670725822449e-02 -2.807135134935379028e-02 2.166416496038436890e-02 4.506237804889678955e-03 -2.204583957791328430e-02 2.851011231541633606e-02 6.828224658966064453e-02 -2.187911421060562134e-02 4.955504089593887329e-02 -7.845459878444671631e-02 -2.688299678266048431e-02 2.288690302520990372e-03 5.014832317829132080e-02 -6.146185845136642456e-02 -2.647509984672069550e-02 4.265780001878738403e-02 -4.442952200770378113e-02 3.987862542271614075e-02 -1.730708405375480652e-02 -5.891537293791770935e-02 4.479425400495529175e-02 -5.448094010353088379e-02 2.682873792946338654e-02 -2.566302567720413208e-02 -7.913228869438171387e-02 4.804250597953796387e-02 -2.050148323178291321e-02 -3.724085912108421326e-02 -1.183553878217935562e-02 -9.066927433013916016e-02 -6.582990288734436035e-02 -2.885993197560310364e-02 5.277873575687408447e-02 1.182648818939924240e-02 -5.086253210902214050e-02 -4.540378600358963013e-02 -4.728203266859054565e-02 4.588757641613483429e-03 2.181262709200382233e-02 -5.722156912088394165e-02 -2.552501857280731201e-02 -5.525213479995727539e-02 4.004375636577606201e-02 -6.047448888421058655e-02 2.864219062030315399e-02 -1.318758726119995117e-02 4.661902785301208496e-03 -7.105243951082229614e-02 4.984354972839355469e-02
5.749201029539108276e-02 5.203718692064285278e-02 -4.738039523363113403e-02 6.463050842285156250e-02 4.452500492334365845e-02 1.484714895486831665e-01 -7.962801493704319000e-03 6.804947555065155029e-02 -4.787749797105789185e-02 -2.138165570795536041e-02 4.270348325371742249e-02 -1.891436800360679626e-02 -3.730500489473342896e-02 -3.850159049034118652e-02 -5.168481916189193726e-02 -4.915901646018028259e-02 -1.274937950074672699e-02 -4.791626334190368652e-02 -2.841318026185035706e-02 -1.662222854793071747e-02 1.445066481828689575e-01 9.081914275884628296e-02 -3.136404976248741150e-02 1.518844813108444214e-02 4.994655773043632507e-02 -4.233608394861221313e-02 2.814580313861370087e-02 -4.085281491279602051e-02 -6.186037510633468628e-02 5.718047544360160828e-02 9.684322029352188110e-02 -5.514422431588172913e-02 -1.618823967874050140e-02 5.468776449561119080e-02 2.458461560308933258e-02 -2.709552645683288574e-03 6.926219910383224487e-02 1.025883182883262634e-01 6.068654358386993408e-03 8.417215943336486816e-02 2.651702798902988434e-02 1.075462028384208679e-01 4.507528617978096008e-02 7.019361853599548340e-02 -6.852518767118453979e-02 -6.607947498559951782e-02 -4.606302827596664429e-02 2.432369068264961243e-02 -6.649345904588699341e-02 8.412668108940124512e-02 -3.655019029974937439e-02 -6.247817724943161011e-02 -1.366155594587326050e-02 3.504187986254692078e-02 3.241795301437377930e-02 8.599968999624252319e-02 -1.389971096068620682e-02 9.397221356630325317e-02 3.493251651525497437e-02 -3.104945644736289978e-03 2.692536823451519012e-02 5.615912750363349915e-02 9.937071800231933594e-02 -4.830533289350569248e-04 -3.472212702035903931e-02 4.265262186527252197e-02 -4.544672556221485138e-03 -8.783789351582527161e-03 1.252785790711641312e-02 6.739524751901626587e-02 2.791851758956909180e-02 2.833301573991775513e-02 7.592359185218811035e-02 2.178741991519927979e-02 -2.978690527379512787e-02 7.503797113895416260e-02 1.712250150740146637e-02 6.911171227693557739e-02 2.792515046894550323e-02 -2.062514051795005798e-02 -2.063152007758617401e-02 -4.936075210571289062e-02 3.639370575547218323e-02 6.635683029890060425e-02 1.539633125066757202e-01 -6.762456148862838745e-02 1.166180670261383057e-01 -4.168984945863485336e-03 6.836878508329391479e-02 3.739114478230476379e-02 5.655823275446891785e-02 7.491726428270339966e-02 8.537979423999786377e-02 7.247915863990783691e-02 2.478003315627574921e-02 -5.605597421526908875e-02 -5.484561249613761902e-02 5.439215525984764099e-02 -6.125807762145996094e-02 3.583038970828056335e-02 -1.446187775582075119e-02 5.867287144064903259e-02 3.252324461936950684e-02 -1.108216214925050735e-02 3.242412954568862915e-02 -2.445282228291034698e-02 -2.269420959055423737e-02 1.153906062245368958e-02 -3.914885967969894409e-02 -3.769908100366592407e-02 -1.388554647564888000e-02 6.383132934570312500e-02 -5.670460686087608337e-02 -5.244842264801263809e-03 1.241140160709619522e-02 -3.809039294719696045e-02 1.171588897705078125e-02 -1.659294031560420990e-02 6.592180579900741577e-03 -7.192602753639221191e-02 3.915606811642646790e-02 6.771514564752578735e-02 1.398261636495590210e-02 -2.104040607810020447e-02 1.262567490339279175e-01 -1.616191305220127106e-02 2.762995846569538116e-02 5.041294172406196594e-02 -4.674718156456947327e-02 -6.034651026129722595e-02 -5.469506978988647461e-02 6.064508482813835144e-02 8.263902366161346436e-02 5.220989137887954712e-02 6.096673756837844849e-02 -4.040509089827537537e-02 1.061960216611623764e-02 -6.348022818565368652e-02 4.511927813291549683e-02 5.677535384893417358e-02 3.701640293002128601e-02 1.019272767007350922e-02 -6.628105882555246353e-03 4.624754562973976135e-02 9.591173380613327026e-02 2.754384838044643402e-02 3.785811737179756165e-02 -5.071018822491168976e-03 1.102508679032325745e-01 -7.330562174320220947e-02 -1.904720067977905273e-02 4.154941439628601074e-02 3.753489255905151367e-02 -1.682875491678714752e-02 8.892012387514114380e-02 -6.965149939060211182e-02 -1.931591890752315521e-02 -1.183072850108146667e-02 6.194310262799263000e-03 8.656867779791355133e-03 -1.477760146372020245e-03 3.178621083498001099e-02 -2.442821487784385681e-02 -7.436957210302352905e-02 -4.596098884940147400e-02 8.929247036576271057e-03 6.313462741672992706e-03 -2.638275548815727234e-02 5.644782632589340210e-02 7.369137834757566452e-03 1.074377167969942093e-02 -4.836592078208923340e-02 5.538244172930717468e-02 6.189782544970512390e-02 -3.974528238177299500e-02 7.521540671586990356e-02 -6.110499147325754166e-03 6.642899662256240845e-02 -3.431941196322441101e-02 9.352092444896697998e-02 3.074118681252002716e-02 -4.401962086558341980e-02 -5.190485343337059021e-02 -4.035098850727081299e-02 5.152066797018051147e-02 5.056310445070266724e-02 1.775361038744449615e-02 -5.181264504790306091e-02 9.074485301971435547e-02 3.445802628993988037e-02 2.783500216901302338e-02 2.572836528997868299e-04 9.608718752861022949e-02 5.335296690464019775e-02 -6.995812058448791504e-02 9.632709622383117676e-02 1.040014401078224182e-01 6.319234147667884827e-03 -3.522014245390892029e-02 -5.982530117034912109e-02
-1.219135429710149765e-02 6.691989302635192871e-02 2.749030292034149170e-02 -6.253182422369718552e-03 1.998211890459060669e-01 1.273278295993804932e-01 -3.814768418669700623e-02 2.770452760159969330e-02 7.675442844629287720e-02 -5.855314806103706360e-02 -7.024665176868438721e-02 1.373064145445823669e-02 6.503351032733917236e-02 1.349944435060024261e-02 -1.499009132385253906e-02 -3.852770477533340454e-02 2.133038453757762909e-02 6.359890848398208618e-02 -1.780183762311935425e-01 -5.756925791501998901e-02 1.687459088861942291e-02 2.449348196387290955e-02 -4.095020890235900879e-02 2.855363534763455391e-03 -1.405445188283920288e-01 -1.444605886936187744e-01 5.264784768223762512e-02 -6.665939837694168091e-02 -4.723906889557838440e-02 1.081748828291893005e-01 6.282485276460647583e-02 -1.034540608525276184e-01 -3.014101646840572357e-02 -3.586137294769287109e-02 8.984879404306411743e-02 8.629724383354187012e-02 -4.465974867343902588e-03 6.311231106519699097e-02 7.939673960208892822e-03 3.763758391141891479e-02 1.115926657803356647e-03 1.179450899362564087e-01 -3.817965090274810791e-02 1.355301737785339355e-01 3.830002620816230774e-03 -5.868640914559364319e-02 -2.800047025084495544e-02 -1.707717776298522949e-01 -4.441308975219726562e-02 1.229611262679100037e-01 -1.464509032666683197e-02 6.081889197230339050e-02 3.238378092646598816e-02 -6.749879568815231323e-02 9.191438555717468262e-03 6.702246516942977905e-02 -4.619646444916725159e-02 1.200851202011108398e-01 -1.062363944947719574e-02 2.256212234497070312e-01 -7.693760562688112259e-03 1.416991651058197021e-02 1.933457851409912109e-01 9.851007908582687378e-02 2.430378831923007965e-02 1.368018090724945068e-01 -3.527597337961196899e-02 2.252740412950515747e-02 -8.912084251642227173e-02 -5.073165521025657654e-02 1.290653198957443237e-01 2.984125539660453796e-02 7.598048448562622070e-02 1.912697702646255493e-01 -6.839174777269363403e-02 -1.075785085558891296e-01 5.205840617418289185e-02 1.969617754220962524e-01 -1.054755132645368576e-02 1.078747361898422241e-01 -1.964852027595043182e-02 9.916105307638645172e-03 4.205749928951263428e-02 1.827711015939712524e-01 1.760798096656799316e-01 -5.235345289111137390e-02 1.812747120857238770e-01 -2.011029981076717377e-02 -9.291289746761322021e-02 1.979391723871231079e-01 -5.082106590270996094e-02 -2.916201017796993256e-02 -8.784510940313339233e-02 5.290501564741134644e-02 4.670068249106407166e-02 6.589895579963922501e-03 -2.097282558679580688e-03 -5.205820500850677490e-02 -7.601521909236907959e-02 1.805391460657119751e-01 -6.270251423120498657e-02 -8.105127140879631042e-03 5.345701053738594055e-02 -4.837509617209434509e-02 -1.231741532683372498e-01 3.901738300919532776e-02 -4.367449134588241577e-02 1.927176117897033691e-02 4.946943372488021851e-02 1.052623614668846130e-02 7.285212725400924683e-02 -3.209424391388893127e-02 6.038914620876312256e-02 5.550903081893920898e-02 6.201722100377082825e-02 -5.356480926275253296e-02 4.886533319950103760e-02 -8.296035975217819214e-02 -3.201405331492424011e-02 -2.391135320067405701e-02 2.174916267395019531e-01 1.006559934467077255e-02 -1.962239742279052734e-01 3.375053405761718750e-02 -2.721988968551158905e-02 1.130149662494659424e-01 2.719836868345737457e-02 1.992596313357353210e-03 8.958499878644943237e-02 5.764387547969818115e-02 -1.944389892742037773e-03 -5.129433423280715942e-02 8.402774482965469360e-02 -6.053139269351959229e-02 6.846160441637039185e-02 5.799725279211997986e-02 1.784932762384414673e-01 5.739769339561462402e-02 2.566586732864379883e-01 -3.571857139468193054e-02 -2.290378697216510773e-02 4.778408259153366089e-02 -2.430017665028572083e-02 3.137964010238647461e-02 -3.389819758012890816e-04 -5.881130322813987732e-02 8.203390240669250488e-02 1.062395572662353516e-01 -1.499681025743484497e-01 4.517509043216705322e-02 2.024504728615283966e-02 5.255692452192306519e-02 -2.494849450886249542e-02 5.861235782504081726e-02 8.686139434576034546e-02 5.436096712946891785e-02 -2.818832639604806900e-03 -5.284243263304233551e-03 -3.871666966006159782e-03 -6.815651059150695801e-02 2.548823952674865723e-01 1.467075645923614502e-01 -1.195427216589450836e-02 2.054273150861263275e-02 1.612192951142787933e-02 -6.480667740106582642e-02 3.178284317255020142e-02 3.072785958647727966e-02 8.714097552001476288e-03 -4.388682916760444641e-02 -1.118528749793767929e-02 5.456354003399610519e-03 1.644022911787033081e-01 1.434369385242462158e-01 -1.679431297816336155e-03 -2.561273425817489624e-02 1.750446408987045288e-01 3.697436302900314331e-03 2.117422036826610565e-02 -1.076744720339775085e-01 1.972806006669998169e-01 1.027799546718597412e-01 9.632756002247333527e-03 -1.461434550583362579e-02 -5.954346805810928345e-02 6.313532590866088867e-03 -3.431254252791404724e-02 5.883098766207695007e-02 -1.171836704015731812e-01 -7.205623388290405273e-02 2.329975068569183350e-01 1.615075021982192993e-01 5.174630880355834961e-02 2.156062051653862000e-02 -5.835973098874092102e-02 5.840907245874404907e-02 1.284024566411972046e-01 -2.160801365971565247e-02 -1.426934450864791870e-01 -3.865118324756622314e-02
